-1.241959	1.954334	0.812355	-0.6616123	-0.51764643	0.3790733	0.1592683	0.012063064	-0.12964089	0.4688576	-0.24507639	0.42347488	0.19798438	-0.24437621	0.051697217	0.32120764
-0.7763379	0.7634067	0.58921236	-0.024359493	-0.95805407	-0.66581815	-0.50338864	-0.045308385	0.64055175	0.26007152	-0.016796982	0.06182355	-0.82606393	0.2893573	0.35724485	0.14629611
-0.98069865	-0.18467157	0.19526203	-0.24826206	-0.20161796	-0.68396086	-0.4550651	-0.5098534	-0.08234637	0.49902937	0.23617826	0.0859456	-0.03618087	0.0009830365	-0.4694756	-0.3706124
-0.18520948	0.38777915	0.14742963	0.089689836	-0.080292135	0.32248473	0.32860646	0.13205443	-0.12416646	-0.03802491	-0.15861842	0.0106142685	0.031186527	0.024950814	-0.0060295374	0.29456472
-0.4679614	-0.39823428	-0.77575356	0.26060057	0.16242163	-0.2355975	0.39762163	0.18808979	-0.14393494	0.8117639	-0.45523328	0.7734663	0.053033076	0.3417431	-0.311698	0.101757795
-0.81793076	-0.6256628	0.47749227	-1.6519063	0.6437066	-0.6577325	-1.2173046	-1.384452	-0.8833233	0.11600578	1.228375	-0.62662965	0.82397896	-1.2994606	-0.9156067	-1.2380612
-0.11325826	0.35210806	0.10168535	-0.19965294	-0.14869122	-0.32533002	-0.26135385	-0.1357784	0.23632196	0.21896571	-0.16354759	0.28480223	-0.17335542	0.074202254	0.2268894	-0.14340545
0.4539268	0.054548524	-0.386184	-0.47164175	0.9626036	0.6974118	0.55575573	0.15414935	-0.8029595	-0.25714785	-0.16654356	-0.011120793	0.9117148	-0.65624213	-0.16848505	-0.071397565
0.1744853	0.33610088	0.2399432	-0.28337523	0.28061667	0.42339385	0.14994474	0.024459423	-0.3150386	-0.3551633	0.11351901	-0.25286296	0.34979233	-0.3897422	-0.032926865	0.067405455
0.7111388	1.8190765	1.0099766	-0.5784151	-0.46725428	0.68877435	-0.39931953	-0.080831856	0.2912233	-1.4013596	0.23224618	-0.89854074	-0.11928443	-0.57062244	1.1644529	0.25839213
-0.006463105	0.5941694	0.43902653	-0.33566687	-0.108950704	0.043182492	-0.17217246	-0.05761143	0.0098818885	-0.19387445	0.11509205	-0.2141204	0.021988714	-0.25686398	0.17891467	-0.1108555
0.048103664	0.29932976	-0.11180566	-0.30563074	0.043255147	-0.020261489	-0.1379587	-0.08731774	0.12725872	0.0721267	-0.19004951	0.30379906	0.056056824	-0.16531208	0.24226591	-0.16538039
0.299997	-0.075897105	-1.1609265	0.54013604	0.6849078	0.87517893	1.3679934	0.8893493	-0.62566715	0.27593732	-0.7278688	0.6034207	0.6973228	0.23833023	-0.29871708	0.8384584
-0.08531353	0.58883965	0.15256263	0.30001456	-0.40588897	0.19492662	0.26303187	0.382629	0.26594052	-0.024397975	-0.27272534	0.057519738	-0.24610977	0.30650726	0.31476173	0.47596863
-0.70497644	0.050553683	-0.55314994	0.60676193	-0.7649326	-0.6591419	0.20746627	0.47678778	0.63418186	0.76233774	-0.5273043	0.7494548	-0.77955735	0.7162392	0.27591318	0.4738141
-0.062378354	0.2146187	-0.41335762	0.28913715	-0.16153625	0.058739956	0.411429	0.43245202	0.17730068	0.48949057	-0.55438054	0.59062153	-0.07619048	0.3639552	0.14957382	0.3898175
-1.2223709	-0.78038526	0.514964	-1.1784607	0.7348974	-0.5995855	-0.7963768	-1.2371956	-1.2699742	0.11444126	1.3669096	-0.8298334	1.1517648	-1.3171749	-1.3562626	-1.0747
0.12843622	0.6988674	0.1182624	0.44250175	-0.36742634	0.65889215	0.5874153	0.62280095	0.17157398	-0.27356967	-0.3263189	-0.1677226	-0.14265777	0.2783317	0.45276785	0.85482365
-0.5276488	-0.07937988	0.02614343	0.17361373	-0.18039285	-0.27181292	0.033733588	-0.017946195	0.02275169	0.3236869	0.065960854	0.11443899	-0.069604315	0.16430953	-0.19373254	-0.027551744
-0.15635356	0.06174814	-0.20012423	-0.060354754	0.1086267	0.05255133	0.23542309	0.047411863	-0.12959623	0.1855909	-0.16974618	0.2751369	0.18652058	-0.043492015	-0.09559	0.10029852
-0.27886307	-0.0768614	-0.036158334	0.29631045	-0.07493484	0.23496038	0.32972562	0.2523163	-0.15496626	0.048586015	-0.08717301	-0.06924678	-0.0012669922	0.1380817	-0.15683444	0.28932908
-0.34686643	-0.31525466	-0.22706985	-1.2347368	0.7262666	-0.5026478	-0.54204905	-0.79654944	-0.52374893	0.40164903	0.37070444	0.2912539	0.65927273	-0.83277744	-0.43427873	-1.030151
-0.10538233	0.46087605	0.535835	-0.3915666	-0.33761612	-0.21120913	-0.5648336	-0.40280512	0.34627324	-0.33212397	0.21231747	-0.3029228	-0.34579176	-0.25488135	0.29650468	-0.3228966
0.47053394	1.0594676	0.10056124	-0.7627542	0.01660592	-0.22912078	-0.51886195	-0.017531235	0.19931668	-0.13799453	-0.09060669	0.14265507	-0.04852935	-0.48146546	0.66876596	-0.29276073
-0.10651576	0.037397783	-0.04396878	-0.028310716	-0.10104465	-0.12292116	-0.0073342053	0.022760686	0.12195925	0.13472183	-0.1474305	0.15172237	-0.13210534	0.08954858	0.093415536	-0.006740695
-0.21448623	0.0006159353	-0.33889043	0.2405032	-0.22848935	-0.042417407	0.17413817	0.19726305	0.16491516	0.38991758	-0.2720225	0.4356051	-0.16186298	0.30869994	0.06263694	0.19143327
-0.09719696	-0.12806474	0.15995032	-0.24658023	0.31892526	0.34158745	0.08751199	-0.21057603	-0.45678547	-0.14303187	0.33527255	-0.2818291	0.43370363	-0.48525333	-0.4199996	-0.1486223
-0.28246593	-0.17803831	-0.39911124	0.058730267	0.14189419	-0.121396266	0.17108378	0.07786597	-0.14501132	0.48422748	-0.22472675	0.35374907	0.18479729	0.08517599	-0.23133837	0.017804248
1.4967521	2.381013	-0.12697837	-1.79271	-1.1162409	-1.220551	-1.7911773	-0.4493176	1.8064576	0.06861936	-1.1975402	1.5667627	-1.4003304	-0.07766248	2.5194907	-1.114958
-0.34939268	0.10390775	-0.15066364	0.2649591	-0.3714495	-0.44039938	-0.15659492	0.054658797	0.3759224	0.39328575	-0.26124015	0.418305	-0.4371407	0.37997538	0.1224659	0.058836807
0.1584937	0.14850652	-0.08187862	-0.2892936	0.20518732	0.324304	0.15268587	-0.008362575	-0.2594822	-0.2011589	0.05667013	-0.03705904	0.2848801	-0.28742644	0.032530192	-0.01789272
1.4796438	2.078935	-0.40777132	-0.9902125	-0.2415574	-0.37160346	-0.7758479	0.28540063	1.1660284	-0.2081972	-1.231756	1.1112305	-0.7282672	0.008183645	2.1043618	-0.37089428
0.781492	0.5936585	-1.1541606	0.64372903	0.42612377	1.1963586	1.7055948	1.377851	-0.4229268	-0.004982575	-0.8369707	0.30170345	0.48245177	0.16644329	0.017667865	1.375245
0.07554352	0.011179042	-0.024129676	-0.3552549	0.43346003	0.2365622	0.10468942	-0.062760554	-0.36573187	-0.13574496	0.11996555	-0.07131911	0.42514396	-0.38215047	-0.1817263	-0.22636802
0.2527421	0.23620959	-0.35567424	0.017165374	0.0530407	0.2601412	0.23583171	0.27533543	-0.03512702	0.06622018	-0.31051832	0.39500394	0.061545257	0.04316265	0.28136757	0.22412209
-0.054417726	0.11683729	0.38275662	-0.6098877	0.22576928	-0.034175534	-0.33903474	-0.39741585	-0.30253595	-0.31183028	0.39957023	-0.37002692	0.23876871	-0.5216628	-0.10977043	-0.38272554
-1.4776365	-1.6076722	-1.1255611	-1.2842956	1.385739	-1.4624093	-0.5078335	-1.2584672	-1.5136914	1.571332	1.2079163	0.63253635	1.4840188	-1.276862	-1.7153258	-1.4774739
-0.07157134	0.062106963	-0.07967948	0.15234147	0.06793613	0.12188875	0.24131857	0.15960746	-0.10771515	0.16001748	-0.06176767	0.11920312	0.13568994	0.093159884	-0.12982154	0.19574909
0.15737595	0.15769571	-0.6216029	-0.2694381	0.014112751	-0.35535425	-0.2044059	0.0660528	0.25442064	0.53034157	-0.49830619	0.9392581	-0.20394148	0.10380434	0.3250147	-0.12572153
-0.42606816	0.036796603	-0.2087454	0.6069151	-0.34549773	0.13046391	0.6088824	0.5975366	0.17107709	0.3933774	-0.38480416	0.24582134	-0.25840816	0.5231507	-0.09312413	0.7519869
-0.07612742	0.077834815	-0.2309971	0.26881158	-0.07281224	0.22649662	0.42293924	0.33382735	-0.016645452	0.24634863	-0.28946853	0.28309575	-0.012678969	0.22511005	-0.00010465855	0.3552037
-0.118934214	0.19115368	-0.11412052	-0.08537981	-0.08748007	-0.25099996	-0.043559838	0.02808754	0.1718785	0.31207377	-0.18639052	0.3801153	-0.116544954	0.11304471	0.16303436	-0.11815889
-0.36373764	0.08886195	-0.28087446	0.53942466	-0.2733626	-0.062744655	0.46232802	0.52833766	0.19958116	0.4639382	-0.41065	0.4096635	-0.31937784	0.53647685	0.07949514	0.56847316
-0.25486323	0.38543665	0.18893766	0.28256488	-0.36882633	0.12340294	0.14184557	0.2596863	0.14173155	-0.11540439	0.005337504	-0.08677228	-0.22920772	0.15299569	0.14893286	0.33924866
0.041743547	0.41247496	-0.0747507	0.27496424	-0.32029182	0.13253824	0.23914221	0.3615016	0.33021364	0.08006974	-0.3533496	0.26487485	-0.24341899	0.26855206	0.38301563	0.44950697
0.287323	0.12366123	-0.3274914	0.299712	0.43581867	0.7201739	0.77911025	0.5260802	-0.4639188	-0.099742435	-0.34761602	0.022370469	0.45339116	-0.043831598	-0.17302081	0.5145775
-0.06588444	0.20235467	-0.25631022	0.50913894	-0.13960326	0.27880287	0.5000638	0.4724117	0.10111547	0.26020092	-0.40118784	0.28886428	-0.12137974	0.40867895	0.08422477	0.5490985
0.024109824	0.8383737	1.0600522	-0.9053481	-0.029540233	0.73955333	-0.34099284	-0.64943415	-0.5127667	-1.2537146	0.90031934	-1.3044475	0.44627258	-1.137857	-0.01096698	-0.23965153
0.16490912	1.1196847	1.1374307	-0.6805777	-0.40574452	0.6971289	-0.50524044	-0.566729	-0.21879105	-1.4265852	0.81785303	-1.2578311	0.052921478	-0.7921491	0.27819058	-0.093146086
-0.30091575	0.22075537	0.8348567	-0.54193246	-0.28560185	0.11450019	-0.5936949	-0.65098643	-0.15638094	-0.66936165	0.78150606	-0.8341162	-0.008259645	-0.62926245	-0.20894635	-0.34489265
-0.40804374	-0.6042157	-0.3961061	-0.1259191	0.5791287	-0.15795007	0.22155598	-0.23416226	-0.6422769	0.4439188	0.13886149	0.20400463	0.5649821	-0.2284777	-0.7531715	-0.32554048
-0.17613512	-0.15928929	-0.634037	0.028132945	0.11437461	-0.29592207	0.044723377	-0.009660595	0.044450127	0.6442819	-0.36664888	0.693471	0.02507385	0.20479542	-0.09339126	-0.12423441
-0.07110281	0.34456915	-0.27521816	0.5805693	-0.33894464	0.31039003	0.6483571	0.59833443	0.26815352	0.23796423	-0.46999538	0.29367065	-0.21697344	0.45785695	0.23141992	0.7587725
0.019937232	0.31035575	-0.4524025	0.53527474	-0.44666782	0.044581916	0.37611032	0.50637925	0.4733531	0.32773837	-0.5794198	0.5496042	-0.4853999	0.56233287	0.5142194	0.57362175
-1.0366528	-1.3007343	-1.1427021	-1.00959	1.3312476	-1.0673211	-0.3828965	-0.8690186	-1.2956402	1.4509822	0.8575965	0.72235996	1.3525336	-0.9523236	-1.3600738	-1.1692089
-0.34735748	0.18762258	0.31768024	0.1829664	-0.2735133	0.14651847	0.11997382	0.047253154	0.023053454	-0.020833606	0.1118639	-0.25894067	-0.04713674	0.08452625	-0.07251386	0.26284784
-0.338231	-0.22144327	0.18777467	-0.3301293	0.008106227	-0.12394149	-0.3083891	-0.44094142	-0.1408012	0.02293368	0.40883508	-0.2031924	0.06554332	-0.3254111	-0.2130536	-0.4451951
0.31022418	1.3253394	0.7048379	-0.37162697	-0.4945253	0.37891322	-0.3397625	-0.10685966	0.2697973	-0.83548784	0.14490011	-0.5456933	-0.23703977	-0.24637161	0.87140006	0.19520967
-1.2289879	-1.3158807	-0.65037477	-1.0677749	1.1785442	-1.2153208	-0.67472655	-1.1400963	-1.2766271	1.220324	1.1467186	0.19013211	1.2836485	-1.0698136	-1.4359403	-1.2488105
-0.14889002	-0.07362987	0.26498124	0.023328794	-0.014764851	0.2067212	0.0344473	-0.12993273	-0.21973097	-0.27932987	0.30367288	-0.37114462	0.13531896	-0.12599875	-0.28733784	0.07244971
-0.83937997	0.04585082	-1.0047089	0.894897	-0.76221395	-0.62136	0.7748098	0.86483866	0.7959506	1.0998166	-0.9864926	1.1429825	-0.9201968	1.0570277	0.30837402	0.966116
1.029387	1.7026945	0.27183446	-1.5378743	-0.5434231	-0.7076116	-1.4468659	-0.5895814	1.1743268	-0.37324515	-0.53369486	0.8398764	-0.879522	-0.37726054	1.8277357	-1.0002667
0.74696517	0.56709355	-0.55367136	0.467095	0.57211864	1.2228903	1.3328247	1.033915	-0.6796215	-0.4720958	-0.5144937	-0.12767199	0.73777187	0.0011859268	0.01676685	1.087609
-0.22341514	0.556281	-0.3938456	0.3907772	-0.6366426	-0.5163346	0.13239126	0.57120764	0.6691545	0.62172145	-0.59151375	0.7436337	-0.69474274	0.6052052	0.70029026	0.49820015
-0.61054397	-0.32404098	-0.8019784	0.5335336	-0.16568646	-0.4336112	0.48113805	0.37209907	0.13247356	0.9226095	-0.37859216	0.77840185	-0.18224049	0.4467757	-0.17090851	0.26388425
-1.3492082	-0.5405469	-0.9706914	0.7692093	-0.24055818	-0.63594306	0.8977436	0.45582542	0.075646825	1.2356143	-0.47333714	1.0898061	-0.2720236	0.6693507	-0.626821	0.44220158
0.09081595	0.20488743	-0.14436275	0.17858323	-0.11943512	0.14346023	0.24057075	0.31527367	0.18095134	0.12895244	-0.31606317	0.1863953	-0.15424754	0.16214816	0.18485871	0.32133558
0.09126352	1.2504877	1.5175744	-0.79620117	-0.44680327	1.0467657	-0.5597378	-0.82314646	-0.39817747	-1.938237	1.2522652	-1.9137539	0.19331267	-1.2124747	0.14293899	-0.1759921
0.60840136	0.8620922	0.12731756	-0.6254834	0.22474907	0.19324417	-0.2333456	0.0089279115	0.25555542	-0.42163843	-0.22322103	0.041481875	0.00056716823	-0.32220247	0.7305176	-0.17031346
-0.33728498	0.12922801	0.34255975	-0.09811759	-0.025142275	0.142208	0.046957944	-0.13718307	-0.24685045	-0.17776375	0.28307322	-0.37824595	0.1482134	-0.2738597	-0.26495546	-0.077096455
-0.61354816	-0.462782	0.20080057	-0.2482832	0.22699949	-0.24936828	-0.19735318	-0.44871154	-0.5157556	0.15458107	0.46487132	-0.27045166	0.30767006	-0.3285775	-0.687686	-0.38145396
0.013050843	0.43224448	-0.7506862	0.5220077	-0.27998638	0.064402506	0.5726219	0.7155798	0.39066434	0.4789847	-0.7131849	0.72095615	-0.32848608	0.4693394	0.5222545	0.6306154
-0.19208376	0.104549326	0.115851805	0.13405983	-0.03675331	0.21675815	0.13080312	0.117119655	-0.10936313	-0.084579885	0.020643724	-0.13439426	0.0775876	0.042763453	-0.122511886	0.16351277
0.38178462	0.34812528	-0.28109238	-0.11959863	0.20758246	0.24356808	0.16105254	0.2682676	-0.10081811	-0.07190467	-0.2737058	0.18134512	0.16335016	-0.13765444	0.27985626	0.11494293
-0.5380219	-0.44115078	-0.04532486	-0.55311614	0.22448602	-0.7649796	-0.5933472	-0.5301748	-0.3067332	0.4076111	0.29846323	0.16379097	0.21216212	-0.28390455	-0.4772629	-0.6196358
-0.063104816	0.3422901	0.17484713	0.20719965	-0.2858181	0.30664906	0.25983045	0.26729622	0.140558	-0.15104067	-0.0032420282	-0.18002298	-0.16156504	0.13816328	0.14672452	0.3455961
0.107944176	0.115619555	0.20980589	-0.42762932	0.26422682	0.22732523	-0.04023796	-0.20937648	-0.3515569	-0.31034437	0.2342737	-0.34784582	0.38316974	-0.4895884	-0.13667184	-0.17092183
0.36427718	-0.20725068	-0.40782902	-0.12344921	1.0151043	0.6880073	0.7686175	0.323114	-1.024977	-0.23659831	-0.025194779	-0.17966457	1.0507482	-0.5087939	-0.51397306	0.21310712
-1.0803508	-1.1776869	-1.1176913	-0.70747805	0.95478374	-1.2763019	-0.19845821	-0.76853365	-0.93046427	1.3815681	0.5662886	0.7545134	1.0013808	-0.56551343	-1.233805	-0.92304707
-0.20399277	-0.059172317	-0.5465563	0.44228378	-0.2332134	-0.18382575	0.35741895	0.42364845	0.31713584	0.5774985	-0.5018247	0.6511396	-0.30793917	0.5392634	0.105237074	0.35461792
-0.14401673	0.49635518	-0.502691	0.685776	-0.6748762	-0.25969118	0.4117813	0.70169824	0.81330323	0.5968049	-0.85781324	0.73606855	-0.83260643	0.84339285	0.74548125	0.71545666
-1.1427864	-0.85371584	0.10828203	-0.82365817	0.52867436	-1.0884712	-0.8189244	-1.0700017	-0.80771357	0.49306175	0.95514834	-0.33465683	0.72827274	-0.8019938	-1.0299599	-1.0198793
-0.5395152	0.30573937	0.87836903	-0.32454655	-0.5844	-0.09066286	-0.66549766	-0.64762706	0.1252042	-0.6333382	0.739265	-0.819451	-0.25921255	-0.36436042	-0.14796573	-0.30066785
-0.23729123	0.02315663	0.0057728295	0.25436395	-0.43322134	-0.1462288	0.06433206	0.07100466	0.2687654	0.18206231	-0.11911675	0.12920024	-0.4190348	0.27339154	0.02873665	0.20524207
0.09121678	0.19784425	0.60309416	-0.5284045	0.22580081	0.39710084	-0.1357951	-0.3472762	-0.34088105	-0.7131041	0.5180748	-0.6971362	0.33570316	-0.6463286	-0.13453089	-0.17885837
-0.37160927	0.05086458	0.37721536	-0.07106002	-0.037949994	0.11258555	-0.13524537	-0.16718324	-0.22050707	-0.18047564	0.3099177	-0.38207123	0.055327717	-0.25057837	-0.1871462	-0.055524092
1.1097823	0.7044685	-0.97911537	0.15809882	1.405379	1.3415195	1.5007249	1.3196343	-1.3724256	-0.8094934	-0.99648905	-0.16751574	1.407449	-0.8102147	0.34459198	1.24134
-0.3806938	-0.41519693	-0.8758672	-0.06545425	0.2654998	-0.8446148	-0.11693815	-0.062351715	-0.022520628	1.1276771	-0.38664514	1.0834079	-0.00979281	0.19926149	-0.21315928	-0.32770747
0.031427886	0.3512652	0.14934824	0.53645706	-0.23783655	0.5220079	0.4927501	0.45388335	0.065370165	-0.23719531	-0.13646185	-0.240769	-0.08532965	0.26791453	0.13424626	0.6288482
-0.45594132	0.25227007	0.9263271	-0.8814154	-0.12565583	0.0010116319	-0.89857936	-0.9391115	-0.25968283	-0.73019576	0.97830313	-0.9605029	0.14192395	-0.86983496	-0.3198131	-0.7028559
0.2920999	0.009857758	-0.34686774	0.0022378797	0.41719037	0.45024455	0.42630497	0.2804036	-0.29876995	-0.057637446	-0.13156295	0.04255155	0.40927908	-0.12176802	-0.10917978	0.19127482
0.4684972	0.42123827	-1.044942	0.78125	0.25225723	0.98056674	1.5331178	1.2589738	-0.22891504	0.23949558	-0.9118857	0.53634495	0.32326552	0.43171957	0.14751528	1.3040668
0.09987952	-0.008087677	-0.21074188	0.23245046	0.17997435	0.29211923	0.45346144	0.36407498	-0.22627644	0.06231273	-0.23259851	0.092790775	0.21609145	0.115632735	-0.10880222	0.3855129
1.2318028	1.6561428	-0.24278624	-0.96399134	-0.09298458	-0.00441019	-0.45626697	0.13646086	0.76810616	-0.42942855	-0.8568761	0.7941558	-0.4415865	-0.21792741	1.7334375	-0.17892484
-0.43389967	-0.14088866	0.15083525	-0.2262448	0.17608802	-0.13421436	-0.15458566	-0.3314467	-0.43175036	0.014597702	0.36098722	-0.25917506	0.34154895	-0.27833226	-0.50988144	-0.28285694
-0.89145595	-0.75351995	-0.68310785	-0.70562	0.577705	-1.2752275	-0.57049644	-0.65377706	-0.492789	1.0954776	0.267046	0.6718218	0.43285322	-0.33499336	-0.70618653	-0.845718
0.008733096	0.20428215	-0.241657	0.40711877	-0.055764347	0.078084536	0.3994259	0.42792782	0.13534921	0.29765478	-0.4485014	0.32927522	-0.09922461	0.35933697	0.16957556	0.40796262
0.17316316	0.5739557	0.04465938	0.10949574	-0.34959593	0.015673198	0.008666822	0.22772641	0.35199994	0.019137435	-0.3199596	0.17840075	-0.36549458	0.2654307	0.49690354	0.26303855
-0.24369007	-0.17988634	-0.13746408	-0.09348895	0.2670597	0.0411272	0.17590748	-0.023209764	-0.4074836	0.118495636	0.08601771	0.025521584	0.3563254	-0.21574095	-0.3344485	-0.09051353
-1.1322122	-0.9634491	-0.032094806	-1.0032138	0.6201078	-0.93010914	-0.7792729	-1.1006519	-0.84207505	0.5915763	1.0468774	-0.1657515	0.78421736	-0.87857604	-1.1527524	-1.2490532
-0.5844507	-0.0769624	-0.7454835	0.48740026	-0.52178615	-0.67853284	0.34792322	0.4197939	0.5352621	0.8410828	-0.5472793	0.89494675	-0.56107557	0.59794533	0.21974391	0.43296003
-0.15978721	0.09298693	0.4200183	-0.018523648	-0.23358163	0.20685484	-0.031013343	-0.16456017	-0.012136237	-0.27180052	0.3061036	-0.38273248	-0.07704135	-0.16088471	-0.062782384	0.08046749
0.029284649	0.34008384	0.24276014	0.06744703	-0.23179217	0.16994569	-0.035392374	0.08861075	0.15322895	-0.22505924	0.015540578	-0.18657327	-0.12812883	0.035698604	0.2477372	0.08472802
-0.023554929	0.09213373	-0.27412	0.1735447	-0.069470845	0.06727388	0.2388234	0.24115653	0.060732424	0.3164001	-0.31854808	0.35422242	-0.036443114	0.25655708	0.025938056	0.26154056
-0.309708	1.0981632	1.1296476	-0.588738	-0.6730528	0.7391203	-0.74830294	-0.678211	-0.12259268	-1.3266417	0.85024583	-1.2876385	-0.0829579	-0.81802714	0.3349125	0.063064374
0.043423377	1.1563858	0.83121985	-0.6170193	-0.706437	-0.02248353	-0.8077654	-0.43447676	0.45915782	-0.8495833	0.3952696	-0.49791256	-0.41290838	-0.33992237	0.7057609	-0.23776427
0.957403	0.85274464	-0.550932	0.51412475	0.97973114	1.2644824	1.29431	1.2987553	-0.7896122	-0.7379023	-0.8583548	-0.15897705	0.9735991	-0.114075854	0.8696155	1.2786244
-0.5204447	-0.09547534	-0.12633781	0.048958384	-0.3154071	-0.6868575	-0.24163465	-0.10162375	0.2500797	0.39810538	-0.035642613	0.3932181	-0.3174238	0.16034415	0.03514589	-0.07128074
-1.1697396	0.6648733	1.4281439	-1.0294731	-0.9976178	0.654211	-1.463614	-1.4690754	-0.08589929	-1.3957144	1.6087834	-1.631292	-0.30472487	-1.2859948	-0.19215646	-0.6682551
0.64655054	0.20993263	-0.48752865	-0.13517334	0.80569446	0.74276084	0.74650145	0.5062091	-0.567709	-0.26998305	-0.47882533	0.13998021	0.72558373	-0.3805613	0.09152037	0.30934367
-0.49370477	0.01937018	-0.44648555	0.54668885	-0.35769203	-0.22776347	0.38184533	0.38557267	0.25865644	0.5347602	-0.4177688	0.5114871	-0.35867044	0.5042967	0.013936122	0.41046536
-0.0718214	0.14192219	0.4028952	-0.09098196	0.13628799	0.5148969	0.20078662	-0.026235884	-0.54090405	-0.4511485	0.36377355	-0.5639435	0.45276803	-0.38581362	-0.36356246	0.11919988
-0.16378804	0.17348833	0.15559854	-0.49026987	-0.17678864	-0.52004194	-0.6406725	-0.4165344	0.2043168	0.11549771	0.08968872	0.14387752	-0.19437237	-0.08813024	0.19643807	-0.3933023
-0.8387758	-0.14268109	0.272929	0.29174682	-0.5766901	-0.5145319	-0.1427783	-0.12644213	0.22231244	0.21840812	0.13051373	-0.1559374	-0.455411	0.2895287	-0.09694717	0.058955625
-0.46517006	0.36727595	1.0092862	-0.25189897	-0.63703984	0.1494173	-0.6082545	-0.53307647	0.058758445	-0.88674843	0.8381554	-1.061793	-0.27598137	-0.37272364	-0.07694044	-0.14829639
-0.80828846	-0.95232034	-1.3727045	0.06037526	0.7571638	-0.96924317	0.3480394	-0.091598645	-0.6543993	1.4737918	-0.28603396	1.241469	0.5291026	0.18889217	-0.84575653	-0.4143368
-0.51828927	-0.13231547	-0.40388164	0.49649432	-0.43741167	-0.3388385	0.27739128	0.2949283	0.35579598	0.54474664	-0.31568503	0.4436286	-0.37733823	0.56083626	0.016602026	0.4302129
-0.0021514841	0.34637228	0.3542744	-0.09949645	-0.42621568	-0.08559097	-0.41979837	-0.07435974	0.2774585	-0.3007338	0.067514576	-0.18013842	-0.30698702	0.04151158	0.26027274	0.06501361
0.28686947	0.15675788	0.20468506	-0.24521208	0.5612327	0.7463012	0.47689104	0.20838115	-0.6407444	-0.46971032	0.114665195	-0.5674648	0.6847416	-0.6560057	-0.13806583	0.15773402
0.4111296	0.8379112	0.25053042	-0.3948083	-0.45735204	-0.18236281	-0.56912416	-0.08378537	0.7000141	-0.29855058	-0.08413456	0.080886	-0.58207184	-0.036539994	0.8854423	-0.20498343
-0.9731993	-0.041788746	0.5658793	-0.094779894	-0.40736553	-0.43809438	-0.50024754	-0.5595418	-0.108206704	-0.20662999	0.5728597	-0.59340304	-0.11305604	-0.110267036	-0.46339875	-0.38189146
-0.18073685	-0.028398762	0.20407096	0.06572878	0.096872985	0.3054816	0.19029208	-0.004677201	-0.2574498	-0.14417292	0.21851	-0.2767623	0.21967062	-0.090817414	-0.29612157	0.10199733
0.7608423	0.7089151	0.029547071	-0.25880674	0.85728544	1.0417751	0.76826954	0.5253677	-0.85368866	-0.96159804	-0.17217892	-0.7303951	0.88912565	-0.7938896	0.33938277	0.5216711
-0.60791534	-0.5270678	-0.515866	0.120084375	0.29343644	-0.32844806	0.24230272	0.0177161	-0.35945153	0.6323856	0.0057370123	0.42045155	0.23068617	0.02424558	-0.5505742	-0.1043878
-0.04719861	-0.14141199	-0.123364314	-0.13720547	0.37818575	0.17895845	0.19987163	-0.020151373	-0.39756674	0.12132178	0.034008596	0.04435128	0.4042592	-0.14270611	-0.30168056	-0.047096144
0.26207027	0.3967384	0.47461402	-0.29064763	0.23328945	0.75149006	0.20675096	-0.013643789	-0.5519533	-0.7122362	0.44315642	-0.8082625	0.503489	-0.58858854	-0.15647385	0.24026549
1.0728655	1.0231941	-0.7817044	-0.10718682	0.92385185	1.0627521	1.0001919	1.3050619	-0.55527264	-0.93689513	-1.1156461	-0.040885285	0.7351905	-0.5236557	0.85636276	1.0854069
0.329423	0.7121751	0.4220813	-0.4093354	-0.014367625	0.29831567	-0.1412392	-0.03537843	0.12898801	-0.6457154	0.08458155	-0.31204927	-0.0741129	-0.32704505	0.53051484	-0.040576957
0.64756197	0.8930407	0.2795674	-0.5070915	0.073695615	0.39284295	-0.09045023	0.066372916	0.07926522	-0.6986433	0.03453508	-0.33744472	0.0958177	-0.38058418	0.66118824	0.11097457
0.047005724	0.21970372	-0.20047942	-0.001982928	-0.21828349	-0.23009716	-0.12129266	0.08717212	0.26674277	0.26476645	-0.23384471	0.4647916	-0.2448358	0.14878465	0.35428682	0.04200414
0.37601444	1.0636996	0.9071754	-0.49856284	-0.09218636	0.70355886	-0.25227994	-0.19292936	-0.090189226	-1.3101614	0.53339005	-0.9963665	0.072798334	-0.7342244	0.5281968	0.11064239
0.9128394	0.84950966	-0.6402318	0.2467424	1.0647091	1.1661546	1.1173979	1.126619	-0.94804066	-0.89322436	-0.8854181	-0.406007	1.0372975	-0.65261257	0.8656055	1.057557
0.20603386	-0.2356417	-0.47245595	-0.3285296	0.8924621	0.5038765	0.6354266	0.16386871	-0.8118638	-0.06579384	-0.08278153	-0.10288432	0.93810207	-0.5989407	-0.40018827	0.008971484
-0.3948319	0.0059853974	0.5527476	-0.46436232	-0.1990711	-0.12498241	-0.83713853	-0.7116365	-0.03707847	-0.30110812	0.7694435	-0.58943486	-0.13148223	-0.4164682	-0.116559565	-0.24888054
0.69562376	1.0203941	0.15173681	-0.5146104	-0.28796875	-0.104661755	-0.48471662	-0.023542933	0.59383726	-0.32309148	-0.33335972	0.25432116	-0.4152494	-0.06460861	1.0176343	-0.051233586
-0.05587441	0.119918205	-0.11944245	-0.1053042	-0.2921362	-0.39279765	-0.2279388	-0.11285491	0.4063205	0.3001499	-0.1386655	0.41601902	-0.35495102	0.102268025	0.28106463	-0.1585853
-0.34922463	0.40942937	1.1575772	-1.0520133	-0.44743738	0.20729023	-0.8896045	-0.98718536	-0.13038228	-1.1129974	1.1319755	-1.2274295	-0.021498552	-1.0310768	-0.15884705	-0.6798814
-0.22737497	-0.26912692	-0.14560291	-0.12820032	0.62531507	0.08878798	0.33382508	-0.10998731	-0.6986736	0.17824492	0.08669674	-0.087193884	0.6660499	-0.25778243	-0.5253806	-0.22276948
0.23106569	0.39216238	-0.34779507	0.079119794	0.02605459	0.19556375	0.2156951	0.25714007	0.0278498	0.072393134	-0.36701798	0.32556167	0.04626292	0.07592824	0.34055507	0.19447838
0.20108992	-0.04387632	-0.092898324	-0.25356165	0.3343808	0.2157478	0.14203933	0.005401853	-0.27550226	-0.1156765	0.01035269	-0.0041248235	0.3672148	-0.24436143	-0.10624925	-0.07242898
-0.5664969	-0.24464478	-0.39196032	0.579735	-0.26686925	-0.34412304	0.43555975	0.4165376	0.18410064	0.69290715	-0.43380758	0.5314119	-0.27591637	0.5356114	-0.19149034	0.39708713
-1.2018219	-0.9244325	-1.3005022	0.5246627	0.16388363	-1.1083943	0.7490625	0.16429874	-0.29715517	1.386661	-0.26662394	1.1931909	0.16926649	0.46873158	-0.80642354	0.020918364
-0.6862428	-0.22457841	0.37385684	0.18848343	-0.25724998	-0.110630676	-0.058242466	-0.21292382	-0.023019195	-0.042758245	0.3380825	-0.32758367	-0.15540914	0.058360703	-0.4978845	-0.04793527
-0.15108585	-0.042074174	-0.0765666	-0.14332461	0.17333938	-0.040087722	-0.055717126	-0.04204046	-0.14879069	0.16809532	-0.013760074	0.16513845	0.12546727	-0.14708598	-0.063609466	-0.12642068
-0.38168928	-0.10518258	0.04137894	0.17475024	-0.17968526	-0.03991823	0.059572767	0.03675242	-0.0009362824	0.080186926	0.009022572	0.0320139	-0.16009508	0.16779953	-0.10363126	0.06786375
-0.020644234	0.6259489	-0.08179954	0.34095383	-0.6963746	-0.39817804	-0.0820191	0.37118307	0.7109243	0.2577497	-0.47240546	0.42657635	-0.7268335	0.5549505	0.68512857	0.33201602
0.03753343	0.25757095	0.5990667	-0.4334751	0.14129673	0.5701925	-0.032959033	-0.26220298	-0.5320293	-0.7497777	0.48924628	-0.7557435	0.49677572	-0.7528833	-0.3070493	-0.12281075
-0.6428642	0.685111	1.3727875	-1.001216	-0.87795657	0.5347586	-1.5082027	-1.3479284	0.09938178	-1.216296	1.530248	-1.5575167	-0.38904923	-1.193897	0.027250424	-0.38948447
0.4474062	0.2808715	-0.10851941	-0.30685934	0.41731915	0.5304189	0.38725585	0.27442607	-0.3077859	-0.23261191	-0.1410367	-0.02981087	0.39270577	-0.3225494	0.05449593	0.19624117
-0.2477105	-0.16301964	-0.86362684	0.40218082	-0.06405398	-0.22635448	0.5019973	0.46093965	0.12903398	0.69226205	-0.5600452	0.79714715	-0.061029747	0.35814458	-0.009828868	0.33367404
-0.59566385	-0.07552058	-0.25869232	0.55284125	-0.6648779	-0.27345905	0.21844289	0.30231982	0.5834939	0.39127046	-0.22599791	0.30478203	-0.67898494	0.62605864	0.08940552	0.42482755
-0.011187252	0.8282876	0.5386152	-0.33485	-0.6608264	-0.33738384	-0.7530295	-0.2909857	0.59696424	-0.34828478	0.21098596	-0.24713084	-0.5945799	-0.13486524	0.6232848	-0.26381353
-0.054777727	-0.28390157	-0.26055837	0.13437714	0.47528875	0.32241267	0.5504969	0.16394687	-0.5397974	0.13945726	-0.008355608	0.00070678286	0.54799825	-0.06471109	-0.48001373	0.18145159
0.34765795	0.93871254	1.0351655	-0.5821265	-0.061904967	0.8880222	-0.0130529385	-0.13670349	-0.45737734	-1.394556	0.71118975	-1.4208024	0.34053594	-1.0755047	0.4133508	0.24471863
-0.7005815	0.0033863059	-0.06910365	0.5098402	-0.5870341	-0.3115869	0.3403393	0.24891803	0.3923108	0.34158978	-0.20858449	0.21201421	-0.49656883	0.48588	-0.0066336077	0.40816686
-0.53266984	0.063415766	0.120098345	-0.046350207	-0.3819199	-0.51374197	-0.3490355	-0.23363543	0.24493217	0.23936486	0.08084606	0.14213833	-0.28238094	0.08917434	0.0018212885	-0.12872967
-0.32943028	-0.04076393	-0.7185137	0.5479502	-0.4166332	-0.36087215	0.41682845	0.5755562	0.4140925	0.7028449	-0.5704644	0.786942	-0.54031533	0.64506626	0.20936108	0.5464145
-0.33708197	-0.29337215	-0.17958155	-0.13140376	0.046229757	-0.6002637	-0.32586783	-0.19691248	0.046529923	0.50252134	0.021324405	0.33372808	-0.026904276	0.100773714	-0.22627725	-0.3449769
1.2213581	1.0364732	-0.95006055	0.492625	1.3203132	1.4527513	1.4379878	1.434293	-1.1240258	-1.1237847	-1.2117217	-0.25071567	1.1934214	-0.54456055	1.1341527	1.4213734
-0.06679896	0.43621063	-0.84381497	0.8071826	-0.56754804	0.1486073	0.9309439	1.0161623	0.5580778	0.68925524	-0.9547349	0.822031	-0.61996704	0.7534762	0.62743443	0.99317884
0.24443687	0.010699506	-0.6350004	0.11432085	0.52429056	0.3881724	0.6003856	0.33741754	-0.3714364	0.21127766	-0.43256578	0.42711315	0.48888952	-0.047792066	-0.10814717	0.21504244
0.07616722	0.68035823	0.35029146	-0.08265814	-0.47054976	-0.048530914	-0.3246726	-0.01429205	0.3921373	-0.23552182	0.03831152	-0.118168935	-0.3884207	0.03309056	0.44835615	0.112652995
-0.5126935	-0.039098922	-0.5884948	0.64781874	-0.4649333	-0.1749001	0.64270395	0.62000847	0.39269018	0.63507277	-0.6470182	0.6079332	-0.49933437	0.7043681	0.10565671	0.77948356
-0.13009332	0.2211832	-0.35461482	0.21271662	-0.20558944	-0.085087776	0.2287786	0.31048793	0.2315948	0.3742282	-0.42439353	0.5289042	-0.22673322	0.33124065	0.22297727	0.30596375
-1.4554467	-0.26930746	0.13053489	1.006023	-1.263545	0.6188826	0.80714244	0.67584944	0.47464642	0.08989439	-0.081424884	-0.10901109	-0.93113816	0.73008376	-0.36787224	1.017846
-0.14236002	0.14940888	-0.22116677	0.3144538	-0.24238718	-0.10321107	0.12557575	0.33738923	0.26959836	0.35182822	-0.31288478	0.32807165	-0.30565295	0.35786152	0.19659972	0.30444857
-0.6132367	-0.57170004	0.12229055	-0.54470116	0.518561	-0.30855843	-0.269374	-0.58991534	-0.66888285	0.14319777	0.6295822	-0.37316144	0.63679963	-0.6607381	-0.7017352	-0.56386167
-0.85697347	-0.29002672	-0.67989457	0.69440955	-0.34028715	-0.49382532	0.6171026	0.44520807	0.24975346	0.87329555	-0.4197894	0.69104135	-0.4160975	0.59445435	-0.21760513	0.5361262
-0.9353226	-0.95214295	-0.7113457	-0.76772076	0.7335917	-1.1081957	-0.6270842	-0.8183789	-0.78694576	1.1199881	0.6484335	0.58852184	0.7044841	-0.6443698	-0.9678721	-0.99287707
0.049155116	0.20847166	-0.47208998	0.31065506	-0.243655	-0.009277186	0.27794257	0.48996833	0.32319176	0.36444217	-0.4950341	0.5211484	-0.25933936	0.45620352	0.30662388	0.43234545
0.03360468	0.32034752	-0.44368166	0.8162611	-0.34384358	0.37338644	0.81011254	0.78158015	0.3078788	0.3600163	-0.6620608	0.42899695	-0.30951998	0.66512173	0.33216026	0.92295027
-1.3068361	-0.18966688	0.259528	0.63993263	-1.0151905	-0.112979144	0.2382383	0.18815038	0.37526935	0.059357528	0.13469468	-0.25063094	-0.70417047	0.49208844	-0.35772264	0.593025
1.199842	0.88905066	-0.50474966	-0.23526268	1.1293108	1.2236857	1.1858318	1.0517329	-0.845762	-1.0407463	-0.63362217	-0.4725893	0.98176074	-0.7819207	0.58289915	0.97119063
-0.8820027	0.8712024	1.5474753	-1.0442656	-0.9062131	0.83322555	-1.3443561	-1.3836282	-0.20768805	-1.6432024	1.5186933	-1.7256298	-0.1808235	-1.353179	-0.21979494	-0.7005548
0.26896358	0.52136743	0.4189593	-0.6727864	-0.02693795	0.091951735	-0.4798459	-0.328458	0.06324852	-0.46432805	0.22347945	-0.24937642	0.0005941424	-0.503193	0.30591536	-0.33619246
-0.13681425	-0.5239294	-0.9984902	-0.15832804	0.7036827	-0.015028057	0.43822464	0.06605314	-0.5662011	0.6538868	-0.15736829	0.64685136	0.64747465	-0.18682969	-0.50199544	-0.094920635
-0.23566853	0.35878304	0.6902337	-0.25866047	-0.093174174	0.5661342	-0.13063012	-0.35609227	-0.5845198	-0.7469338	0.59072644	-0.90319777	0.3240015	-0.6362102	-0.3678006	-0.11394838
-0.13013092	0.08007398	-0.023765365	0.08715506	-0.11455854	-0.014116421	0.011792967	0.023475783	0.007126909	0.14813896	-0.115514815	0.08974478	-0.10976722	0.06861531	-0.05074892	0.1310866
0.59099436	0.6284647	0.22071683	-0.31106648	0.57144594	0.8302452	0.44581774	0.29269046	-0.5177811	-1.0395424	0.039509445	-0.7687251	0.5688703	-0.6950021	0.40502188	0.32086438
-0.13638072	0.5249193	0.48470315	0.22988077	-0.49375498	0.33068442	0.02557866	0.11019326	0.20076688	-0.39538363	0.123115	-0.46882752	-0.23651958	0.052786853	0.18190613	0.33628255
0.21954192	-0.108655624	-0.7906411	-0.35312966	0.5344715	0.03383635	0.14802279	0.064991765	-0.23430037	0.25829807	-0.32412425	0.6484758	0.42840677	-0.2532733	-0.06946557	-0.16130324
0.52025616	0.5456371	0.2657785	-0.84537405	0.5051818	0.56168497	0.13442314	0.048211936	-0.4370426	-0.9808558	0.16257365	-0.63713616	0.44788265	-0.9186294	0.20664826	-0.07315734
-0.24729975	0.0038531437	0.1154817	-0.120582916	-0.25012565	-0.42347896	-0.47195944	-0.25732592	0.20290132	0.10107874	0.107198484	0.0063304054	-0.2727011	0.040849708	0.024846893	-0.18396106
-0.14223532	0.09202307	0.13765796	0.2213148	-0.179398	0.31383705	0.21105878	0.1812604	-0.05722191	-0.09165445	0.042272218	-0.11203597	-0.09274217	0.12924765	-0.08169958	0.25174657
-0.14656405	0.10254741	0.700135	-0.21085694	0.06914992	0.6379454	-0.074228644	-0.3278195	-0.53609425	-0.7609725	0.7481137	-0.8741071	0.4300996	-0.50050145	-0.5123059	-0.067503095
0.00092923787	-0.2646985	-0.34812412	-0.3263876	0.8407119	0.15722556	0.2885995	-0.09902307	-0.7268794	0.18013889	0.10654647	0.059226204	0.788848	-0.49597567	-0.3852593	-0.18366952
0.6620332	0.59546465	-0.5125705	0.24337988	0.3853024	0.632763	0.66544634	0.70620483	-0.099592485	-0.124740265	-0.60069555	0.3238646	0.27906713	0.14814028	0.5635776	0.6639976
-0.5928559	-0.045727164	-1.03648	0.88655853	-0.5534755	-0.09677546	0.9611231	0.957988	0.51300883	0.9028877	-0.8650011	0.890312	-0.5898744	0.8618404	0.24073999	0.9438166
-0.42791566	0.03131324	0.30553263	0.0054572504	-0.45613307	-0.24126115	-0.25232616	-0.21671931	0.20124297	-0.06204136	0.11763754	-0.20729692	-0.31716144	0.07402112	-0.044432867	-0.05157631
-0.61883205	-0.080086656	0.18254504	0.26824588	-0.5175116	-0.29923287	-0.03962868	0.0137882475	0.1841093	0.0543759	0.14003888	-0.13229202	-0.41452608	0.24261662	-0.1196259	0.15116495
0.19930843	0.26957652	-0.11926288	0.13923793	-0.075180136	0.0390729	0.047568884	0.20569424	0.23263563	-0.034665253	-0.23770764	0.20776223	-0.093178935	0.16134492	0.26454905	0.14538401
-0.9558863	-0.37674844	0.53547704	-0.17489491	-0.0059837643	-0.32757905	-0.43191445	-0.63405496	-0.4720367	-0.16840227	0.7760397	-0.6197663	0.1981765	-0.345827	-0.7108057	-0.45684898
0.29014534	0.07753887	-0.261359	-0.21460354	0.5136541	0.39354208	0.42181462	0.16217147	-0.42885175	-0.17113435	-0.20322263	0.09546102	0.4883213	-0.39793098	-0.030195948	0.06126142
-0.06941306	0.1069597	-0.037635848	0.043471914	-0.035486892	-0.09349727	0.09786223	0.07979183	0.059524022	0.20072585	-0.1448947	0.21797523	-0.055613223	0.17927577	-0.019090353	0.112139955
0.26943424	0.34859774	-0.2436342	0.26366004	0.015909906	0.31575513	0.33218667	0.33601207	0.12400767	-0.033297703	-0.32337394	0.25365192	-0.005201383	0.13943873	0.2701958	0.421207
0.22829564	0.1140262	-0.1812866	0.069025174	0.25127795	0.43570524	0.37441397	0.22143571	-0.21745159	-0.13717282	-0.2312976	0.084039	0.28469625	0.005364504	0.030515425	0.2408179
-0.10461084	0.39426258	-0.47375527	0.5201955	-0.594112	-0.20116785	0.37022385	0.5394055	0.67489785	0.5118794	-0.698316	0.7288365	-0.64392835	0.6508225	0.6962136	0.62330747
0.031921905	0.20135586	0.068760134	0.03750232	-0.10586862	0.08579298	-0.011951109	0.13299756	0.025697066	-0.07538657	-0.019568557	-0.0755851	-0.055053234	0.052973762	0.10195069	0.16077784
0.02273924	0.38657182	0.37436762	-0.17667009	-0.08775004	0.29879957	-0.071883745	-0.1600071	-0.14309806	-0.3648491	0.24958132	-0.38192692	0.08854363	-0.207376	-0.02312513	-0.037132293
0.004139599	0.28974468	-0.20951165	0.2622287	-0.37885618	-0.038286578	0.113077335	0.26324627	0.49174035	0.245574	-0.36576626	0.3948956	-0.49223062	0.37228337	0.48851877	0.33400995
-0.5065678	-0.3233274	-0.08167438	0.16500725	-0.1957517	-0.18856347	0.089917205	-0.056197774	-0.04416694	0.18310058	0.09623683	0.015845183	-0.11942402	0.17674589	-0.30412912	-0.02055577
-0.5615824	0.010959358	0.81801826	-0.87816644	-0.070480645	-0.01444351	-0.7813075	-1.0032642	-0.3520687	-0.5979813	1.1238562	-0.87399256	0.22817591	-0.95409036	-0.38341168	-0.6379937
-0.30038851	-0.09542361	0.041032765	-0.86787045	-0.03736157	-0.9429975	-0.96179754	-0.6826942	0.1633155	0.28663626	0.23057398	0.27163598	-0.17033933	-0.3610913	0.0047132755	-0.7960496
0.0452337	-0.024875524	0.3360194	-0.48734662	0.31803364	0.342363	0.14132446	-0.20604604	-0.5270722	-0.34124005	0.4410475	-0.486767	0.5254722	-0.5958008	-0.28666818	-0.19905874
1.0827005	0.8511216	-0.7352362	-0.110053636	1.1390556	1.2962848	1.2741865	1.158342	-1.0932521	-1.1071965	-0.7582594	-0.54335487	1.1284822	-0.83507633	0.64083177	1.1105269
0.3874182	-0.10826857	-0.5384434	-0.05159048	0.84708136	0.5662218	0.6609282	0.36274207	-0.75367576	-0.09160433	-0.18128115	0.018641384	0.7886086	-0.28965884	-0.30690837	0.20258112
-0.3566813	-0.12986104	0.2633427	-0.31055543	-0.081297055	-0.23858315	-0.44911608	-0.45984578	-0.06192176	-0.018934904	0.43700826	-0.24520907	-0.008203252	-0.27955928	-0.22437033	-0.32400393
-0.049310554	-0.048831612	-0.31902248	0.12324248	0.12842669	0.038555242	0.21964085	0.1881753	-0.053904172	0.28930768	-0.21970473	0.30743223	0.07104433	0.17028405	-0.097557105	0.10432684
-0.000107234264	0.16884908	-0.13324304	0.1016241	-0.07025587	0.017474988	0.010983215	0.17394735	0.17279853	0.10427117	-0.23513578	0.25367725	-0.16514997	0.15497687	0.13977662	0.14155948
0.13668114	0.11952142	-0.014186384	-0.58599865	0.4386665	0.11514581	-0.08390276	-0.24893518	-0.26689264	-0.12692578	0.08639886	-0.014993916	0.41490224	-0.51570207	-0.10324573	-0.3042071
-0.18770263	-0.22498684	-0.5712582	0.32586583	0.04015359	0.046180792	0.55288655	0.36639625	-0.060126517	0.40053996	-0.3631202	0.3476076	0.012520979	0.2878929	-0.15821014	0.33347854
0.45060793	0.3236195	-0.29501384	-0.09544272	0.58856624	0.6167781	0.5956299	0.4244189	-0.4915466	-0.378033	-0.30559865	-0.10579907	0.5602696	-0.27493957	0.13335498	0.33999527
0.10382529	0.50361663	0.7314601	-0.41232052	-0.09935181	0.4751822	-0.3316084	-0.35215712	-0.18586758	-0.80148035	0.5788434	-0.8567238	0.08211604	-0.64336836	0.09157219	-0.12374186
-0.71694285	-0.24107333	-0.855733	0.6281603	-0.49415037	-0.577625	0.5675082	0.49766687	0.39493817	0.9611261	-0.49342453	0.9074359	-0.52343446	0.6974713	-0.044070777	0.5217385
0.6514338	0.41398916	-0.25317833	-0.18425648	0.87869215	0.84437	0.8281923	0.5635902	-0.7545067	-0.6553293	-0.28931853	-0.38540927	0.82645035	-0.6784341	0.15539426	0.5624213
0.97968495	1.3867005	-0.017544175	-0.9790513	0.1581236	0.006360268	-0.39167556	-0.028395992	0.22731021	-0.5330644	-0.26621208	0.19079816	-0.028449582	-0.721771	0.8398197	-0.38296267
0.040892124	0.2743461	0.22255713	-0.37210122	0.07953893	0.12485897	-0.14247583	-0.10541192	-0.07025674	-0.25726524	0.030888759	-0.22510727	0.12492075	-0.32159513	0.109073825	-0.09371457
0.2352177	0.4315722	0.03306724	-0.08597941	-0.10897652	0.09603001	-0.00036055373	0.1071505	0.22859846	-0.20905036	-0.14056815	0.00035076	-0.18863912	-0.016621731	0.3618431	0.1644675
0.13990279	0.8033845	0.9096114	-0.62498206	-0.4918669	0.27533603	-0.75385547	-0.5143638	0.24145816	-0.94933873	0.58027565	-0.90621334	-0.30440953	-0.5937246	0.4395189	-0.16690286
0.9207472	1.4257885	-0.06010419	-0.6285112	-0.64638627	-0.805011	-0.957439	-0.113669775	1.0016427	0.10926609	-0.70062166	0.90873295	-0.80859905	0.10556583	1.4624685	-0.4380336
-0.49757525	-0.36190346	-0.61109835	0.16595098	0.11600703	-0.43932685	0.29463434	0.017685615	-0.183267	0.68149966	-0.22608657	0.717212	0.09107016	0.17936593	-0.30446467	-0.12825803
-0.17319797	0.27385828	-0.13143942	0.18035936	-0.5470732	-0.3652343	-0.09418259	0.03987582	0.56939536	0.2008026	-0.2311497	0.30002683	-0.5348105	0.3144574	0.36890262	0.1350973
0.002467805	0.012859476	-0.82250905	0.69671685	-0.058237918	0.50283253	1.0902723	0.90825343	0.03528662	0.41209245	-0.64818	0.5056801	-0.017620089	0.49915004	-0.022910247	0.9470591
0.027749838	0.33502162	0.51290333	-0.48727414	-0.12866661	0.051589765	-0.3756715	-0.32223582	-0.016538197	-0.53913975	0.31082922	-0.389726	-0.040557265	-0.38622522	0.13280098	-0.17963603
-0.7908217	-0.53160286	-0.04076022	-0.41563225	0.27136052	-0.6479969	-0.431857	-0.6166885	-0.5069912	0.4296104	0.5960508	-0.057822566	0.36755955	-0.33458045	-0.60039854	-0.5354087
0.7089166	0.74774736	0.07497829	0.030513514	0.5336079	0.9584281	0.7328421	0.6415631	-0.64537185	-0.87621504	-0.16832548	-0.56575936	0.65717167	-0.6541033	0.5430905	0.8260755
-0.38375935	-0.494362	-0.1111847	-0.80315965	0.6386083	-0.2739119	-0.30663288	-0.6001103	-0.6825983	0.23230928	0.6216678	-0.09435905	0.67082775	-0.77082175	-0.6386914	-0.6356227
-0.3147398	-0.21114533	-0.028690577	0.0914665	0.043100268	0.10281763	0.22339451	0.02897592	-0.25541893	0.09224666	0.11742453	-0.056415185	0.09826243	0.028040068	-0.33919108	0.07404851
-0.13475135	0.10176134	0.0073771607	-0.5623226	-0.14806207	-0.70034784	-0.8057618	-0.5655429	0.28723618	0.1968405	0.14675125	0.30490947	-0.31195846	-0.26936042	0.25334534	-0.6048712
-0.35054567	0.1791092	-0.55661744	0.37283656	-0.53073055	-0.47570527	0.13479425	0.38558865	0.5818581	0.644281	-0.5949016	0.7098393	-0.52162915	0.47231	0.3846236	0.32542
-0.6380142	-0.05035733	-0.14800648	0.5775744	-0.40330073	0.100157574	0.53020424	0.33358794	0.09622506	0.33209288	-0.20406069	0.2162431	-0.2111349	0.45417267	-0.29992613	0.4812437
-0.18761416	0.45648727	0.5860106	-0.14052312	-0.3706032	0.25251764	-0.1599388	-0.10012507	0.033327345	-0.43252954	0.27765277	-0.53083897	-0.12546557	-0.24399988	0.109805845	0.035827555
-0.15795915	0.148453	-0.13889691	-0.028028486	-0.34681776	-0.5724839	-0.34163427	0.0058269855	0.40781376	0.35459235	-0.2837859	0.4581873	-0.4760721	0.28763017	0.29959577	-0.05678301
-0.51150656	-0.60233617	-0.020008037	-0.62858486	0.6857361	-0.20535147	-0.13674848	-0.4801216	-0.9592919	0.22985853	0.6046465	-0.13173823	0.95001864	-0.80659944	-0.8651167	-0.57270086
0.025261108	0.015707094	-0.2343093	0.11899239	0.17706668	0.2678122	0.3372083	0.30595928	-0.18265754	0.07741365	-0.267404	0.11827818	0.26699343	0.007860311	-0.10670537	0.219693
-0.69934654	0.26781783	0.78080964	-0.6782555	-0.37922192	-0.1594797	-0.8660013	-0.96194255	-0.16669698	-0.6502045	0.89801085	-0.81136435	-0.066349134	-0.7470288	-0.25369975	-0.5844551
0.09081818	0.4732853	-0.5578494	0.3707585	-0.26284444	0.16689286	0.45006564	0.6133203	0.31977293	0.2982226	-0.59424746	0.58640176	-0.23465168	0.37404057	0.61300737	0.52099115
-0.93682843	-0.4069901	-1.2712979	1.1301199	-0.6368714	-0.36139473	1.2791909	1.1369114	0.72999114	1.0920976	-1.0636752	1.1690172	-0.78577316	1.155741	0.05190974	1.1572161
-0.84637773	-0.77014285	-0.18556117	-0.70756114	0.61704695	-0.66904765	-0.44712776	-0.8486156	-0.7405191	0.5323382	0.8109506	0.0071924874	0.7872607	-0.80459285	-0.83939683	-0.7341135
0.50300777	0.44809902	-0.5017044	0.10405911	0.84772223	0.7291839	0.7978132	0.6590541	-0.7934694	-0.35952806	-0.56797713	-0.10005137	0.872938	-0.36183453	0.32259622	0.5885376
-0.26320538	0.035358492	0.30186453	-0.1150527	-0.14280736	-0.025421375	-0.18422326	-0.18238369	0.036491096	-0.06742444	0.27177036	-0.24085096	-0.10950208	-0.10716791	-0.043125145	-0.1408452
-0.5910757	0.008124798	0.14634474	-0.00866079	-0.4364685	-0.6553553	-0.3355206	-0.23643333	0.3078093	0.18249089	0.019370586	0.114907466	-0.40904397	0.14095235	-0.06024381	-0.15549181
-0.5891302	-0.25040355	0.34692279	-0.5799893	0.26018927	-0.31364387	-0.47499532	-0.6425733	-0.5536432	-0.04116235	0.70525074	-0.47128	0.5527995	-0.7508214	-0.6356516	-0.50679326
-0.053345792	0.06621584	0.018986424	-0.2807747	0.24755822	-0.03649301	-0.1009464	-0.21058677	-0.23370421	-0.050811555	0.15870132	-0.028916664	0.18630546	-0.27702373	-0.16391599	-0.19768612
-0.12458165	0.06752077	0.20429821	-0.025004346	-0.059023645	0.18390204	0.025831103	-0.0068808543	-0.09673684	-0.18838578	0.13084576	-0.2753115	0.004323916	-0.05227041	-0.075751536	0.10192792
0.013670044	0.46512344	0.19739877	-0.103160426	-0.42510974	-0.20436247	-0.28008738	-0.09715441	0.34930474	-0.06880555	-0.08217109	0.023951327	-0.37417844	0.0227646	0.4376341	-0.0100670485
-0.79777807	0.5435137	0.9822802	-0.5590428	-0.52548116	0.4928015	-0.7339328	-0.77753407	-0.41949004	-0.984329	0.9737254	-1.1139467	0.108546734	-0.8082433	-0.3110361	-0.38773644
-0.22051074	-0.03583042	0.191571	-0.88016254	0.05478307	-0.5192666	-0.72822714	-0.6186916	-0.05549665	0.070825905	0.38921022	-0.09002681	-0.016106715	-0.50115454	-0.053376183	-0.7151378
-0.39436442	-0.39846462	-0.06979106	-0.47276884	0.42276907	-0.1284951	-0.04428642	-0.42507434	-0.53669775	0.15062097	0.3615651	-0.115262605	0.53395146	-0.52424353	-0.5110007	-0.46838787
-0.076304175	0.17577301	-0.1768136	0.33446777	-0.34232122	-0.006833511	0.16941611	0.32989934	0.35654756	0.23803419	-0.38401455	0.30337387	-0.32719207	0.35396978	0.24059364	0.41922492
-0.8335747	-0.8590209	-0.96584696	-0.79316175	0.8232309	-1.0194408	-0.52192247	-0.8111849	-0.7366648	1.1256468	0.58691853	0.62027436	0.74447906	-0.64829475	-0.8585521	-0.96238893
-0.48378426	0.78266066	1.1803048	-0.6586446	-0.7230976	0.5182586	-0.8281244	-0.8791822	-0.11435382	-1.2721322	1.0341822	-1.2973984	-0.13152602	-0.90674984	-0.037622552	-0.3110964
-0.2518603	-0.06831254	-0.41169202	0.2279719	-0.23857565	-0.27986535	0.1760261	0.19677998	0.19707422	0.49514273	-0.2685396	0.54847795	-0.26559976	0.2960391	0.06627428	0.19541809
-0.78083646	-0.94784003	-0.4175386	-0.74727553	0.86884296	-0.6460304	-0.3158575	-0.8089869	-0.9729307	0.7398138	0.78272915	0.04239888	0.9658109	-0.7880573	-1.0907186	-0.86121696
-0.07457509	0.2869358	0.2865123	0.040955763	-0.18772583	0.19605011	-0.011676663	0.03920778	-0.06553513	-0.26010135	0.05288851	-0.3230586	-0.0139129	-0.043830164	0.022702934	0.19521967
-0.11967132	0.39013857	0.3542922	0.005858682	-0.3177755	0.13984193	-0.058860574	-0.014166787	0.1640214	-0.21311888	0.06667566	-0.1957637	-0.22065383	0.055755265	0.17874384	0.13408034
-0.95303154	0.5646993	1.3681725	-0.9717528	-0.702844	0.583273	-1.1712266	-1.2743299	-0.5222438	-1.3905412	1.3840581	-1.4953164	0.04997622	-1.1429981	-0.5296435	-0.835604
0.058169622	0.19197339	-0.13691299	0.4639757	-0.26741767	0.21149231	0.3709668	0.46322206	0.19002445	0.12017409	-0.3838265	0.15560941	-0.21055967	0.3589933	0.19367903	0.5598373
0.28382817	0.015736196	-0.26001665	-0.22363052	0.45725182	0.24261175	0.25626606	0.050270252	-0.28881654	-0.024101801	-0.14365862	0.11632	0.39600772	-0.24723151	-0.057430528	-0.019342907
-0.28257775	-0.13777992	0.12187476	-0.14545639	0.14698406	-0.12162932	-0.14760995	-0.25528097	-0.21486035	-0.028961066	0.27320027	-0.15034553	0.21407668	-0.25646964	-0.24935994	-0.25538933
-0.11724225	0.39118794	0.6669207	-0.5668848	-0.2875226	-0.065569215	-0.55922765	-0.5135613	0.1446458	-0.49906436	0.44629332	-0.5129627	-0.18493633	-0.43161997	0.090633385	-0.4280077
0.21970163	1.0159366	0.75559837	-0.33766076	-0.045970906	0.92201	-0.065707505	-0.15499382	-0.5229442	-1.2248461	0.51177347	-1.0373043	0.35562292	-0.80791503	0.3483731	0.25764194
-0.029698284	0.4229241	0.20897698	-0.041511014	-0.37499145	-0.13392192	-0.2120573	-0.09491184	0.3782364	-0.022837978	-0.110618606	0.082109734	-0.322123	0.12896426	0.35162926	-0.03434797
0.7549616	0.733506	-0.5349217	0.045901086	1.0065665	1.0414182	0.96572506	0.9174932	-0.8947332	-0.79270023	-0.6895187	-0.49068436	0.9839139	-0.6852687	0.6718444	0.8196109
-0.3969877	-0.27006182	-0.48336092	-0.36714733	0.087273315	-0.9619136	-0.52333105	-0.3048783	-0.031366926	0.7824461	0.012653218	0.6998838	-0.07894638	-0.031132393	-0.19672902	-0.4902311
-0.3075869	-0.15863241	0.004576312	0.024922324	0.05658801	-0.13154772	-0.012331085	-0.09947164	-0.16585554	0.15106398	0.13917355	-0.009105795	0.038389336	-0.05708727	-0.2663861	-0.08792728
-0.8117152	-0.51074684	-0.267086	0.0009013668	0.28922653	-0.6969243	0.10950274	-0.24691433	-0.40018222	0.5845744	0.22358014	0.25130895	0.36490697	-0.13769878	-0.61313295	-0.362668
0.5215068	1.19049	0.09381551	-0.67004025	-0.49128398	-0.6293601	-0.8866436	-0.40541205	0.7948461	-0.003053449	-0.29557517	0.614738	-0.6814264	-0.12704268	1.1930836	-0.6593497
0.05030991	0.46654588	0.3107641	-0.077519424	-0.17270558	0.10590788	-0.21019107	-0.00033145607	0.06371056	-0.4023868	0.15988734	-0.29091156	-0.069208026	-0.07584993	0.2434384	0.16075926
0.15017086	0.38370118	0.22152758	-0.2614411	0.019660475	0.23570126	0.03793801	-0.0029648026	-0.04879575	-0.39347377	0.112037644	-0.23700082	0.14076225	-0.28850266	0.2120041	0.0019131016
-0.029840318	0.018910201	0.1337071	-0.3000461	0.26856607	0.168957	0.022736482	-0.16508666	-0.2943529	-0.24284759	0.22499813	-0.27825552	0.33869436	-0.41924712	-0.21563457	-0.2044429
-0.65603805	-0.21207187	0.4776951	-0.622878	0.09980511	-0.17818071	-0.39200458	-0.7347646	-0.53121066	-0.20468777	0.7825175	-0.5870034	0.4710128	-0.7000981	-0.6744654	-0.6348912
0.06312967	0.5462799	0.58035755	0.044041872	-0.3922335	0.45485565	-0.1698608	-0.08316364	0.16289966	-0.5628117	0.24693032	-0.54804325	-0.18965425	-0.12055413	0.26842535	0.30064246
-0.38739756	-0.38882658	-0.06737643	-1.0106022	0.4548766	-0.68568426	-0.75114155	-0.74999964	-0.2888712	0.3594349	0.5360495	0.10192888	0.29540122	-0.7477559	-0.40496907	-0.9771771
-0.072593376	-0.07550779	-0.3965213	0.27396685	0.076339014	0.093559116	0.35291657	0.3213851	-0.058255084	0.27800274	-0.26274624	0.33242217	0.033022676	0.18993385	-0.08248276	0.20027038
0.29652935	0.30599222	0.035107307	-0.17267555	0.5372631	0.48226485	0.36322254	0.23897545	-0.38368136	-0.32350367	-0.07748775	-0.21724881	0.49510682	-0.38885248	0.04298798	0.13725857
-0.4764685	-0.40349972	-0.53183234	-0.08406478	0.050310038	-0.59857714	-0.13974948	-0.117090344	-0.039536707	0.7082127	-0.078558534	0.6048819	0.027306572	0.11766165	-0.24617083	-0.28545877
0.2622051	0.31812942	-0.028750213	0.2248465	0.055895627	0.6295573	0.45240662	0.308946	-0.21698749	-0.32712206	-0.11427901	-0.19930826	0.23759918	-0.016006473	0.03974628	0.5075071
-0.012387994	0.64317507	0.55477375	-0.042373545	-0.4208619	0.36758074	-0.1292476	-0.07347638	0.052536454	-0.66380906	0.2820447	-0.6196013	-0.20520496	-0.15175469	0.24354129	0.16871874
-0.081590235	-0.30663848	-0.060576614	-0.23359801	0.6599181	0.39300862	0.42606303	-0.054725613	-0.8088402	-0.08159973	0.37379172	-0.27732363	0.7673208	-0.4490841	-0.7129921	-0.10107486
-0.6003969	-0.18260305	-0.3290044	0.48353672	-0.29198438	-0.56219476	0.2733125	0.23292507	0.19232866	0.6654796	-0.28855622	0.51654845	-0.34450588	0.57828987	-0.12506063	0.3016637
-0.3607497	-0.44590658	-0.37894577	-0.15609145	0.38756415	-0.22518381	0.08651866	-0.22797748	-0.370578	0.41511658	0.12168967	0.20172557	0.40009826	-0.27038923	-0.52102154	-0.26952043
-1.0946246	-0.9028403	-1.1943407	0.42879206	0.34867853	-0.97276485	0.69444	0.19218588	-0.45844072	1.3329318	-0.28218678	1.1232153	0.27738258	0.40765613	-0.78873485	0.02058077
-0.18044154	0.036030963	0.27959865	-0.20482443	-0.10792003	0.041963402	-0.15367961	-0.2172048	-0.10437986	-0.2093421	0.21954453	-0.3063418	0.04373844	-0.20699327	-0.12571569	-0.18052737
0.058449853	-0.062227074	-0.062348027	-0.16435826	0.3361039	0.3003766	0.19519715	0.014295806	-0.36714378	-0.06053602	0.070670955	-0.1326612	0.39513114	-0.28147537	-0.24810673	-0.03420485
-0.2578712	-0.013023639	-0.27436444	0.03018473	-0.133026	-0.43871754	-0.08513402	0.026209522	0.17352624	0.44361636	-0.15577553	0.42021424	-0.16517468	0.14847991	-0.022731554	-0.0366904
-0.897912	-0.12968768	0.7090527	-0.6345943	-0.35388583	-0.5729835	-0.88137573	-0.91638994	-0.14241132	-0.24716324	0.8754849	-0.7149438	-0.054911982	-0.62189	-0.5385542	-0.77341354
-0.38993278	-0.48706725	-0.16892985	-0.53839535	0.41394666	-0.44385335	-0.315224	-0.49082443	-0.37850666	0.40730268	0.31691965	0.10087488	0.4481559	-0.38770378	-0.4891649	-0.54604274
-0.22008461	-0.5107428	-0.6935352	-0.057098266	0.63827956	-0.06776828	0.34586444	0.080463745	-0.6444465	0.6071964	-0.12045575	0.45644987	0.6268819	-0.07455146	-0.60034305	-0.036127932
-1.0220609	-1.1680002	-0.9018191	-0.75103426	1.1089451	-1.0563129	-0.18285327	-0.84476507	-1.1438726	1.1788994	0.68251354	0.5378783	1.1462052	-0.7903113	-1.3006897	-1.0102618
-0.43973425	0.028230073	0.7175756	-0.8026683	-0.1350536	-0.123331554	-0.74631876	-0.873343	-0.27905464	-0.5789054	0.8340076	-0.7714317	0.19556366	-0.68199104	-0.3653437	-0.73206556
-0.77507526	-0.096813954	-0.77282906	0.99581814	-0.8569599	-0.4513291	0.8201601	0.85101235	0.7671213	0.8568953	-0.7366123	0.8348743	-0.9266604	0.9470935	0.3663618	0.89764726
-0.5237826	-0.46287653	-0.08751297	-0.47945166	0.27511743	-0.58011883	-0.4682507	-0.5925907	-0.32245377	0.30761316	0.48190373	0.024552062	0.1875936	-0.35618374	-0.515956	-0.5597061
0.1990055	0.2939067	-0.121157624	-0.041122686	0.042968065	0.19656727	0.14544196	0.21486747	-0.06254126	0.0502607	-0.21850108	0.17804387	0.07091718	-0.0069285263	0.22487217	0.18134932
0.6224265	0.31069478	0.18750961	-0.7811332	0.6382571	0.71894825	0.3592611	0.034342423	-0.6351032	-0.8180758	0.30751076	-0.57396716	0.7239062	-0.9000629	-0.1275185	-0.017551301
-0.84071463	-0.9744576	-1.0537528	-0.6405234	0.9030694	-0.99223256	-0.1052516	-0.69729275	-0.9013144	1.1709188	0.5275682	0.89785177	0.95569104	-0.6233925	-1.0609754	-0.8489409
-0.27916482	0.24360962	0.5832244	-0.19129933	-0.38187534	-0.16506362	-0.71396476	-0.3484743	0.09507406	-0.3501355	0.296017	-0.4076473	-0.23623504	-0.10071931	0.0075638876	-0.09014017
0.23736091	0.09886731	0.046892807	-0.007964947	0.28222376	0.45420662	0.275327	0.17147015	-0.30204067	-0.2422816	0.007202625	-0.25450188	0.33042815	-0.23385227	-0.1090375	0.20819068
-0.849118	-0.23404448	-0.7910413	0.884981	-0.4907861	-0.15385014	0.95525426	0.83313954	0.44775388	0.8048535	-0.65345335	0.7583744	-0.5575469	0.8945825	0.027201656	0.93108433
-0.38580173	0.51083374	0.88502616	-0.4118848	-0.54176265	0.2779558	-0.6715172	-0.67007077	0.016939947	-0.8604852	0.78697294	-0.94737464	-0.17129996	-0.5415173	-0.07809573	-0.30720377
-0.7134537	-0.20680958	0.14999652	0.057123475	-0.1053668	-0.37589583	-0.056274198	-0.18728015	-0.10272761	0.27154526	0.16478297	-0.018975737	-0.008091583	0.007879453	-0.34902868	-0.10944692
-0.37132707	-0.02720973	-0.18548173	0.57658577	-0.32332498	0.028557355	0.45908424	0.45974165	0.2536328	0.35864413	-0.38230944	0.26040328	-0.33599168	0.4759044	0.015968291	0.51211584
-0.18327652	0.22356881	0.116646804	0.29991382	-0.5346191	0.031414926	0.045898348	0.19109872	0.45890447	0.015413838	-0.086224735	-0.0078798905	-0.50291556	0.28672805	0.26505852	0.3144859
0.27526924	0.3387203	0.25795043	-0.31854215	0.12033305	0.3269528	0.01871926	-0.023476332	-0.06749242	-0.4445372	0.095776156	-0.33227342	0.1380512	-0.35817826	0.24622044	0.024820462
0.27700818	0.34320334	0.522453	-0.48768798	-0.16388561	0.19867828	-0.4212575	-0.33832136	0.20418239	-0.54396516	0.3147185	-0.42419434	-0.16935216	-0.31167775	0.25893235	-0.06107496
-0.32701087	-0.07793552	0.15078093	-0.024917908	-0.09645397	-0.21489476	-0.14195786	-0.20740686	-0.036733404	0.027510133	0.15709051	-0.06673263	-0.007813415	-0.053050287	-0.22629654	-0.14505701
-0.05815624	-0.091479965	0.03260088	-0.37550184	0.38203672	0.118654475	0.12014747	-0.14583711	-0.5273444	-0.08084942	0.21893528	-0.20658745	0.46446544	-0.4848346	-0.3026127	-0.18326762
0.1479815	0.1477797	-0.51633096	0.21824831	-0.10215234	-0.27446356	-0.02838077	0.2717491	0.3346323	0.5149946	-0.5198967	0.63284236	-0.3185319	0.37192553	0.41294906	0.20515747
-0.2327525	-0.17225793	-0.6982409	0.46210817	0.070798025	0.1850481	0.8181126	0.5384543	-0.075931735	0.5263391	-0.51446265	0.52819735	0.011611429	0.38250896	-0.22453165	0.47418275
0.04308258	-0.14814703	-0.12558274	-0.3677397	0.7542499	0.40597525	0.35778302	-0.04646608	-0.88810825	-0.1899904	0.19648106	-0.3211884	0.8858167	-0.7865843	-0.47732344	-0.18383202
-0.26072386	0.18013714	0.109711155	0.13473946	-0.21008436	0.05375287	0.1229219	0.14094625	0.06874999	0.00023822642	0.010377863	-0.091491066	-0.12897931	0.13228737	-0.0025898835	0.2505277
0.6761146	1.3435203	-0.033181835	-0.9238957	-0.69535524	-0.78770065	-1.0001667	-0.2890853	1.1079674	-0.01716638	-0.6210136	0.79479223	-0.8755396	0.08532009	1.476324	-0.6488191
-0.40668163	-0.46199158	0.118901774	-0.34042296	0.39014658	-0.024931664	-0.05519322	-0.38754785	-0.6323036	0.044509258	0.55187654	-0.28088665	0.5264446	-0.5291923	-0.67160827	-0.35296243
-0.4724579	0.101171784	0.68566734	-0.67284775	-0.047100842	0.031284668	-0.6192997	-0.7418065	-0.350773	-0.5537038	0.8212917	-0.7644744	0.27347583	-0.7126491	-0.41497558	-0.49493003
-0.5266949	-0.47260877	-0.38988546	-0.3625756	0.5731543	-0.57337373	-0.1586103	-0.37568954	-0.4695274	0.61117804	0.24719824	0.35494676	0.5107783	-0.36881834	-0.5703084	-0.58823013
-0.05413039	0.17628987	0.05800667	0.03312887	-0.28718138	-0.19065118	-0.061890397	0.043908548	0.23589215	0.12727328	-0.13044633	0.092943616	-0.22299093	0.17397049	0.13550095	0.07871472
-0.3815199	0.12403931	0.067472905	0.2991109	-0.40165105	0.0070969416	0.105383195	0.14261267	0.2719978	0.15868732	-0.025970936	-0.009510864	-0.3824581	0.27509546	0.10525621	0.37393317
0.24470122	0.19619249	0.34513277	-0.40882418	0.24213323	0.33020344	-0.03003338	-0.1571037	-0.19529639	-0.45817998	0.25356457	-0.38437495	0.2279858	-0.39131328	0.085264534	-0.12328589
-0.8042872	-0.90961343	-0.9845503	-0.60876656	0.8832101	-0.9613868	-0.2079164	-0.70268077	-0.8683407	1.0746014	0.6225681	0.79713696	0.90218097	-0.58547115	-0.95744306	-0.8505999
-0.63353735	-0.25761244	0.19299267	0.20338804	-0.22733678	-0.16376361	0.03730226	-0.038084157	-0.121386044	0.08360737	0.19005603	-0.19378157	-0.07010199	0.17724188	-0.28797776	0.08552247
-0.012661913	0.1228931	-0.21091872	0.34518594	-0.05933409	0.11083783	0.410199	0.32563442	0.09506884	0.2000224	-0.27875024	0.20458508	-0.05739584	0.27998915	0.09286996	0.35348022
0.225418	0.142613	0.124937974	-0.23196147	0.3198946	0.39548472	0.18880129	-0.0033763356	-0.34171483	-0.35812744	0.11740315	-0.30193186	0.34755075	-0.37411186	-0.11329388	0.019932209
0.045631565	0.05293504	0.09652623	-0.13511035	0.17139107	0.2780716	0.08576092	-0.05646146	-0.32069793	-0.1537113	0.16386446	-0.2595947	0.23985541	-0.24744898	-0.11754659	-0.044294856
-0.36756817	-0.24052536	-0.5373641	0.3603439	-0.05256664	-0.19599725	0.4336277	0.3442742	-0.033553317	0.58381563	-0.42013744	0.5947095	-0.017945252	0.3260964	-0.16587557	0.33594045
0.68099046	0.34262946	-0.6732457	0.09928773	0.7253316	0.8153505	0.9035455	0.73239076	-0.5196355	-0.38616204	-0.61788183	0.14215723	0.67760265	-0.2138692	0.15260519	0.6088011
-0.22472526	-0.09979665	-0.7432303	0.49802476	-0.16845939	-0.04806435	0.4771843	0.43314865	0.25761256	0.57574207	-0.48793396	0.67415076	-0.18589884	0.45877424	0.121598534	0.38002926
0.45331797	0.6049448	0.10029862	-0.718586	-0.026798123	-0.30472046	-0.5673077	-0.32362142	0.35270658	-0.08088668	-0.09095564	0.32979333	-0.19971247	-0.32211024	0.61303496	-0.5517376
-0.5283466	-0.43332618	-0.25356707	0.14821126	0.10769312	-0.39846402	0.10746436	-0.048909448	-0.17202723	0.44698325	-0.0157471	0.2723012	0.07008475	0.1235257	-0.3576421	0.017644307
-0.005868607	0.14776735	0.28789714	-0.4106603	0.09179115	0.11549977	-0.08882657	-0.2653574	-0.17698562	-0.33171442	0.31819716	-0.36899036	0.24493644	-0.42855114	-0.12953287	-0.25140554
-0.10065758	-0.13069564	-0.10622292	-0.56869435	0.37380362	-0.18635386	-0.23496507	-0.31163234	-0.32295862	0.18848541	0.19124067	0.033604063	0.38920823	-0.4456885	-0.29273564	-0.40008247
-0.1574998	-0.13933879	-0.44002563	0.32712856	0.0127928825	-0.025388252	0.4688681	0.3477427	-0.018133929	0.42157304	-0.36916333	0.45183372	-0.0043208315	0.26816303	-0.07359798	0.33241028
-0.30099344	0.06687143	0.3409869	0.027963797	-0.3909923	-0.019422853	-0.12285247	-0.16591096	0.1351884	-0.13845327	0.27991545	-0.26496783	-0.21441036	-0.005309982	0.056442212	-0.08395352
0.59050965	0.4274425	-0.37010917	0.13834645	0.4410406	0.5811229	0.6610721	0.6213707	-0.247485	-0.2817741	-0.45072782	0.09756005	0.40294445	0.00090123963	0.28669372	0.6025694
0.05666778	0.65466803	0.69999963	-0.5610152	-0.27264994	0.2527379	-0.5426739	-0.36808276	0.03223131	-0.790659	0.45102572	-0.6037619	-0.071426705	-0.48710507	0.19341676	-0.20592493
0.3431348	0.8605987	0.44047406	-0.35788158	-0.23635675	0.2307718	-0.23027538	-0.020085638	0.25050703	-0.56166065	0.07733007	-0.31535074	-0.10437535	-0.2212059	0.6682392	0.059067782
-0.34874842	0.17263374	0.37250343	-0.26798055	-0.43343914	-0.23188083	-0.45666978	-0.40115452	0.16448465	-0.27051276	0.33839542	-0.32109416	-0.2165975	-0.2538833	0.045240268	-0.29106367
-0.29903162	-0.288026	-0.1504843	-0.47500092	0.15594305	-0.516178	-0.42934436	-0.39696032	-0.084376246	0.36822218	0.1371597	0.23477212	0.05125072	-0.22461706	-0.1819428	-0.42679587
-0.50936717	-0.5433748	-0.84854466	-0.6359155	0.49356022	-0.9962804	-0.5280671	-0.5185725	-0.2914314	1.0640296	0.10553029	0.720366	0.29942563	-0.27770275	-0.42316225	-0.6813664
0.23663037	-0.009137668	-0.37732664	0.048255432	0.4181385	0.43676347	0.45185134	0.36555514	-0.4347873	-0.029728016	-0.21037792	0.06040679	0.44893157	-0.06282973	-0.13257866	0.30863523
-0.20992053	-0.29023635	-0.22162552	0.049157314	0.38201272	0.12088989	0.34619224	0.028988274	-0.47778156	0.23127027	-0.034420963	0.13748911	0.42496908	-0.06278671	-0.38989082	-0.029451096
-0.17340982	-0.4428074	-0.4926814	0.14668833	0.45069525	-0.10097997	0.3587684	0.0739681	-0.41266456	0.5267369	-0.19439334	0.45668593	0.40111628	0.05368349	-0.46168956	-0.06800903
-0.37728652	-0.36951175	-0.22193624	-0.18735795	0.17616029	-0.22975291	-0.031205274	-0.27322826	-0.2835177	0.32122374	0.1052673	0.16130836	0.21163855	-0.12554796	-0.36069638	-0.27573508
-0.28188047	-0.118737705	0.05865282	-0.0077569457	0.0013230186	0.055530738	0.05697825	-0.120863296	-0.1991922	-0.00029711094	0.20144911	-0.09913183	0.15021804	-0.11830574	-0.24984694	-0.047287308
0.9408522	1.5102819	0.29027802	-1.2351922	-1.1591243	-1.1988108	-1.4377974	-0.7905162	1.2536836	-0.065301105	-0.43292916	0.9204436	-1.1281343	-0.17403863	1.5097641	-1.1254604
-0.54655683	0.05327246	0.61733776	-0.5304461	-0.26086763	-0.057481315	-0.77528656	-0.7287374	-0.19645312	-0.3492583	0.92330676	-0.7181781	0.050970193	-0.62533885	-0.23381802	-0.37711048
-0.13199143	-0.13399017	0.0796509	-0.4097849	0.41614679	0.06845672	0.035119727	-0.2550737	-0.471589	-0.12062235	0.3124629	-0.23065433	0.45474857	-0.4125778	-0.40029827	-0.23047097
-1.0369292	-0.5751872	-1.3032209	1.2001425	-0.827806	-0.5734308	1.30256	1.1946452	0.8698966	1.1572201	-1.1613792	1.2124672	-1.0131763	1.1771142	0.288056	1.3015844
-0.027218027	-0.0016406538	-0.12839895	-0.04548703	0.054764993	0.11256127	0.1972114	0.018617708	-0.059270654	0.098492	-0.04723453	0.07365721	0.111350626	-0.037783947	-0.06952527	0.08515821
-0.31907094	0.3492661	-0.9273839	0.8074784	-0.8073686	-0.54283476	0.63797283	0.85618675	0.88462335	0.9457174	-0.8877649	0.9678085	-0.89533263	0.8729295	0.72445685	0.8114034
0.8324682	1.4085203	-0.0022938072	-0.34979305	-0.26254207	0.046898827	-0.31806538	0.31903517	0.7052692	-0.27130133	-0.4862465	0.32699126	-0.44044748	0.14323036	1.2604065	0.25389498
-0.1911197	-0.04884485	0.08961026	-0.10944869	0.09484261	0.024941422	-0.032918125	-0.180053	-0.18132979	0.037405495	0.13868009	-0.07587615	0.20562647	-0.15920287	-0.27244157	-0.10330956
0.41297334	0.5093206	0.019661538	-0.46450186	0.11616537	0.01847581	-0.1643945	-0.010171708	0.18996975	-0.15529026	-0.17949812	0.19035539	-0.046943493	-0.20139876	0.42422172	-0.12231737
0.00950783	-0.0058503533	-0.15551145	-0.17497864	0.19553481	-0.12200849	-0.09076893	-0.057037834	-0.059320666	0.17763965	-0.037996825	0.2220179	0.14742652	-0.041816358	-0.06095738	-0.17717393
-0.79235953	0.013649431	-0.51716554	0.5801912	-0.5730741	-0.34137502	0.5706905	0.5107686	0.38161632	0.6087642	-0.50993854	0.56304413	-0.5808062	0.5728314	0.049769834	0.55038196
-0.7252474	-0.56419796	0.14154586	-0.6267634	0.35130212	-0.5760597	-0.67476034	-0.74358684	-0.49706933	0.3055185	0.7752896	-0.29356152	0.45249185	-0.65618044	-0.6394096	-0.6284755
-0.49292973	-0.23517844	-0.6190552	0.462478	-0.08877014	-0.33772075	0.39837262	0.42565396	0.13455066	0.71500516	-0.43099228	0.7254666	-0.1456928	0.4883939	-0.14040256	0.28779837
0.23457196	0.32245347	-0.034981936	-0.2692773	-0.0015623444	0.11882747	-0.091782495	0.023770979	0.10993149	-0.22894333	-0.05215628	-0.004705219	-0.011574379	-0.20608225	0.31988505	-0.040162135
0.046428885	0.16339107	-0.33015952	-0.54586256	0.115695514	-0.5091873	-0.39392507	-0.20316662	0.21239838	0.37468365	-0.25060716	0.59110266	-0.108165085	-0.0038933204	0.25809437	-0.48382944
-0.017068515	0.04551986	0.04898477	0.015143997	0.0038549993	0.123376705	0.063181885	0.031648852	-0.024040818	-0.16417004	0.062197015	-0.11726606	0.067736894	-0.07240192	-0.03735854	0.004386377
0.5128332	0.353133	-0.13803154	-0.18201567	0.3925625	0.46455023	0.33269197	0.32684213	-0.20250991	-0.26955926	-0.2053988	-0.07446473	0.3441793	-0.23601414	0.2586222	0.1834432
-0.592509	-0.20068648	0.11329975	0.09282716	-0.2649329	-0.34602386	-0.319497	-0.372916	0.071607955	0.18527326	0.36388865	-0.10412935	-0.19244824	0.0542304	-0.2286345	-0.109751984
-0.62987655	0.17433526	0.7317362	-0.5709937	-0.27193254	0.0638864	-0.62374276	-0.69519407	-0.22944306	-0.5705545	0.8301022	-0.7955405	0.097762205	-0.68868566	-0.3165547	-0.3924224
-0.05491341	0.010165468	-0.16540341	0.11217069	-0.044359878	-0.059726197	0.23419818	0.20183243	0.058802184	0.24291079	-0.23287041	0.19037116	-0.011131682	0.20263785	-0.017724633	0.16714141
0.059578795	0.09508199	0.025601076	0.3402232	0.04558195	0.44302982	0.4158704	0.19321212	-0.2805864	-0.13437098	-0.008817609	-0.20526747	0.20364961	0.04945891	-0.1596469	0.4065909
-0.45007533	-0.04121295	-1.1808461	0.99742347	-0.48911268	-0.026701234	1.0543827	1.1248533	0.61084664	0.9178339	-1.0018568	1.0688154	-0.6182571	0.9163291	0.3853835	1.0964404
-0.5786118	0.8334345	1.0020095	-0.8400947	-0.85681796	0.10260408	-1.0321177	-0.92587733	0.19470723	-0.9713365	0.91071963	-1.0038505	-0.4234442	-0.75952715	0.29830727	-0.6028963
-0.091257505	-0.11907199	-0.25656548	0.23107822	0.080026105	0.053987775	0.30399278	0.25128737	-0.11340831	0.27959895	-0.24605156	0.1909387	0.035473917	0.17772709	-0.117419235	0.25749215
0.15626097	0.28533623	-0.2909768	-0.002961134	-0.11134594	-0.08625471	-0.005361722	0.16847445	0.30012688	0.19221549	-0.37720987	0.42069665	-0.17785786	0.24102372	0.39489096	0.097189516
0.04572021	-0.006099429	-0.4526326	0.33450332	-0.053507086	0.12355394	0.36870167	0.33753785	0.051723037	0.33096188	-0.4240332	0.4513996	-0.08175724	0.31943855	0.08669774	0.36003596
-0.4289839	0.16399908	-0.14540698	0.27506277	-0.41197348	-0.5179364	-0.0013307888	0.17603607	0.42503953	0.3504603	-0.2672576	0.3106077	-0.48760745	0.32308024	0.24672846	0.198119
-0.51093435	-0.10592084	0.2721369	-0.12151325	-0.20310806	-0.4460883	-0.38442558	-0.37435067	0.04331735	0.12744027	0.25208423	-0.062791534	-0.059599724	-0.05078479	-0.19314253	-0.3420997
0.1567062	0.12948674	-0.112068824	0.16230784	0.06667736	0.2756211	0.29902208	0.23991099	-0.08542601	-0.034158003	-0.11041212	0.025189377	0.049691875	0.08731415	0.05262238	0.32904515
-0.0830783	0.27459478	0.24893449	-0.073203795	-0.31601045	-0.036546126	-0.15591227	-0.024419485	0.24013552	-0.06611986	-0.0071814912	-0.051752087	-0.33321387	0.009737445	0.19960475	0.041000932
-0.49985284	0.15445118	0.7136386	-0.48829916	-0.22952425	0.09379663	-0.5369721	-0.6356887	-0.19483921	-0.5272481	0.7963646	-0.79986995	0.08736025	-0.72195303	-0.22969767	-0.33672783
0.18851963	0.5082512	0.11211696	0.13154997	-0.41578156	-0.048131794	-0.076826535	0.14777648	0.4417738	-0.06471789	-0.21284807	0.07253877	-0.39357302	0.18084696	0.56823033	0.27246475
-0.3941852	-0.06998553	-0.57806826	0.6877825	-0.40316993	-0.10600525	0.59727436	0.57576156	0.3631874	0.5470934	-0.54359806	0.51334536	-0.46653524	0.68038034	0.15305746	0.6436517
-0.88783693	-0.32955617	-1.0537515	1.0202582	-0.58902967	-0.28340507	1.1836499	1.0805918	0.6122487	1.0821042	-0.93595093	1.0215065	-0.78764045	1.0800608	0.1610854	1.1305556
-0.44726095	-0.06263402	0.2705001	0.036709774	-0.23862137	-0.04052513	-0.08634365	-0.17657731	0.012690232	-0.008695542	0.26383018	-0.20993924	-0.09885838	-0.027249562	-0.110652514	0.029969672
-0.3733776	-0.300932	-0.2659021	0.14486177	0.062878534	-0.22542389	0.12356735	-0.03493698	-0.1395901	0.42787537	-0.010514259	0.23324534	0.087450676	0.091755725	-0.32922927	-0.060143664
-0.2586131	0.004570052	0.2152827	-0.14044975	0.051497485	-0.013607082	-0.103940256	-0.19205205	-0.20506781	-0.10005259	0.29597232	-0.29864272	0.23342562	-0.20849964	-0.3153332	-0.19513522
0.66684085	0.47981942	-0.5163015	-0.08418649	0.7719016	0.7427676	0.7900905	0.8289798	-0.7066165	-0.62002826	-0.47587773	-0.47194803	0.7921851	-0.6056398	0.1053089	0.7912553
-0.5123262	-0.45260644	-0.005901148	0.03463277	-0.040154032	-0.34775165	-0.1033994	-0.2870997	-0.19229834	0.23908623	0.2779351	-0.049286928	0.09913074	-0.055176217	-0.4307714	-0.22990026
-0.15870552	-0.22985958	-0.9416579	0.4991356	0.18275201	0.34296203	0.89859694	0.65473753	-0.13875926	0.5729241	-0.40219182	0.5204702	0.14142673	0.29963887	-0.16837521	0.5343683
-0.3026037	-0.3542702	0.060070775	-0.2215469	0.24443014	-0.013110704	0.072885245	-0.21891004	-0.4228558	0.11960791	0.2652339	-0.14924967	0.41463003	-0.27568558	-0.46507224	-0.25081804
0.10858169	0.33151388	0.08775223	0.027473502	-0.086053915	0.27657261	0.14759594	0.107725635	0.05962798	-0.15405446	-0.07315462	-0.07811172	0.020924956	-0.013872625	0.15980667	0.18395412
-0.053607177	0.11526034	-0.5581531	0.7251551	-0.28192616	0.3641178	0.9945564	0.7633145	0.20849332	0.35315248	-0.5881642	0.43035415	-0.2193471	0.49618036	0.16740017	0.89710104
0.42507958	0.3370857	-0.10521279	0.0630704	0.27857146	0.5366536	0.36308208	0.4604054	-0.15659054	-0.30781895	-0.3506079	0.012365612	0.18360728	0.023562508	0.22101319	0.34412253
-0.46879044	-0.25283766	-0.43887222	0.34492648	-0.09497961	-0.55177057	0.22181532	0.23664157	0.054531544	0.6912037	-0.26271385	0.51980954	-0.1472964	0.34948823	-0.18833424	0.106001526
-0.10124636	0.041524906	0.16474563	0.019251868	0.04501546	0.2892169	0.11987254	-0.028891375	-0.26639593	-0.23055811	0.16058657	-0.33395535	0.21767578	-0.097982004	-0.18434517	0.05924982
0.38257706	0.35869816	-0.19632508	0.049857892	0.24692416	0.36031812	0.40835747	0.41273624	-0.07793381	-0.14951527	-0.33839166	0.0782675	0.25317615	0.06653786	0.27933636	0.28720403
0.5510569	1.0379043	0.35665393	-1.1286803	-0.9715859	-1.1465015	-1.2952162	-0.8236706	0.9752006	-0.041735552	-0.19069768	0.6857654	-0.95214385	-0.19777933	1.1338425	-1.0006806
-0.22623599	-0.0027189904	0.15524483	-0.30283666	0.04666517	-0.16197705	-0.2787524	-0.3037906	0.008983021	0.022881454	0.15898734	-0.108778924	0.047160424	-0.24264438	-0.090279095	-0.2779922
-0.26208913	0.18165016	0.6370013	-0.4344233	-0.22078808	0.21401072	-0.29392064	-0.4298346	-0.29676762	-0.6386192	0.61895	-0.71627927	0.1979404	-0.58482176	-0.28153005	-0.28647366
-0.4251101	-0.38773075	-0.02467813	-0.53615063	0.34351766	-0.5694749	-0.47059077	-0.42816016	-0.3104106	0.30186757	0.36783358	0.041140497	0.22060627	-0.36724424	-0.35823947	-0.5712748
-0.026123846	0.53562886	0.69662535	-0.47133768	-0.09208902	0.4101984	-0.41220322	-0.3996992	-0.25308394	-0.7895066	0.59929657	-0.8468491	0.15183367	-0.6827416	0.025188085	-0.18917714
-0.47134095	-0.12397709	-0.28671452	0.5005574	-0.30495816	-0.15591913	0.35685432	0.33082572	0.21561901	0.43331867	-0.2708854	0.30153224	-0.3806556	0.45206848	-0.0325263	0.40269977
-0.29310414	-0.08711156	-0.18429695	0.3030088	0.029106133	-0.17548898	0.2264323	0.20217733	-0.08884806	0.36386028	-0.17922811	0.25934607	-0.0018772522	0.24598852	-0.13408956	0.19948569
-0.26113996	-0.00035589503	0.16790055	0.1255912	-0.21268846	0.08580697	-0.009207689	-0.07346822	-0.047076497	-0.14700396	0.20428039	-0.245866	-0.12111755	0.018532641	-0.10888094	0.09353709
-0.6770665	-0.6827678	-0.6197685	0.197715	0.3954129	-0.27210286	0.39941776	-0.03663008	-0.55638295	0.7487452	0.0819728	0.39910322	0.451521	0.075276785	-0.71883816	-0.123803206
-0.008306834	-0.10801176	-0.273542	-0.05396466	0.2771875	-0.034013215	0.10138772	-0.005767293	-0.2143262	0.1681701	-0.03909813	0.15168142	0.16042145	-0.0095883915	-0.097866595	-0.056223884
-0.6305768	-0.4349242	-0.07739858	0.069858424	0.21920423	-0.20750861	0.23781388	-0.12984306	-0.42681232	0.32604626	0.2610666	-0.028721923	0.28527626	-0.1695338	-0.5819181	-0.10553442
-0.6215119	-0.7119899	-0.5252086	-0.5462268	0.5149838	-0.82289624	-0.35408258	-0.5937738	-0.4766045	0.774254	0.41559464	0.34926155	0.48561165	-0.3675871	-0.660321	-0.6357594
-0.6113776	-0.4245834	0.06526831	-0.34581146	0.2644049	-0.47261322	-0.37831247	-0.5265239	-0.36914957	0.25266802	0.4167812	-0.17316721	0.3151211	-0.31610122	-0.483057	-0.5121575
0.24167792	0.3822665	0.25803313	-0.31405225	0.13114898	0.34016275	-0.028736768	0.02678499	-0.15293744	-0.3886146	0.100706995	-0.30179104	0.2335561	-0.31546336	0.12369475	0.03514102
-0.5016293	-0.3140859	0.02250515	-0.56440336	0.17794506	-0.70451695	-0.5857121	-0.62805134	-0.18506879	0.31745338	0.32124582	0.1914172	0.18209201	-0.4169749	-0.25052476	-0.69249696
-0.6447833	-0.049445596	-1.0054666	1.087152	-0.7559287	-0.05899876	1.1130303	1.0248442	0.87860477	0.9118943	-0.9667002	1.0204626	-0.87418085	1.0657424	0.6622034	1.1132008
-0.029932538	-0.01234417	0.0980519	0.033890147	0.13199857	0.35872588	0.23074	0.023326337	-0.32031822	-0.14604513	0.14242052	-0.24711195	0.29626867	-0.15497491	-0.21869723	0.08722474
0.63491595	0.5778498	-0.41392586	-0.6030172	0.36396092	0.166463	0.03593048	0.17245218	0.049748063	-0.1425165	-0.3597812	0.40702835	0.20728299	-0.26516166	0.48239905	-0.05398681
0.087742954	0.21990296	-0.09657935	0.2507947	-0.14740424	0.20284219	0.28153735	0.33601362	0.07972282	0.07029675	-0.24184553	0.12376502	-0.080549724	0.1952729	0.19692829	0.34884316
0.18360424	0.33029294	0.41132697	-0.42648375	0.20725144	0.44630483	-0.067427255	-0.2559988	-0.36612377	-0.54320586	0.44855186	-0.59592515	0.41024488	-0.6110399	-0.1653523	-0.18996176
-0.24546841	0.6117963	0.9602235	-0.39043674	-0.54205436	0.46342853	-0.6207854	-0.6085858	0.046501394	-0.9763337	0.86129296	-1.0807393	-0.25679612	-0.6435195	0.057165645	-0.13004261
0.76890486	0.63209707	-0.88005936	0.078526966	0.89011496	0.90600663	0.9734035	1.0082629	-0.75366914	-0.58856356	-0.8119955	-0.14157966	0.7389348	-0.49985787	0.46751297	0.9765889
-0.44781768	-0.20899916	-0.08321952	-0.23619902	-0.23697917	-0.7096362	-0.5345463	-0.33204937	0.20010383	0.47029296	0.047233295	0.36064437	-0.25720802	0.049997553	-0.053790074	-0.37092242
-0.21842423	-0.31363013	-0.32268447	0.12736577	0.35519978	-0.06022636	0.38151625	0.19397788	-0.3937778	0.3626048	-0.20146012	0.23188813	0.29995647	0.08134276	-0.40063438	0.0034759077
-0.0049558245	0.2916029	-0.22459535	0.50312316	-0.51601785	-0.060288735	0.26794165	0.46578392	0.52441555	0.3497821	-0.42384198	0.3833128	-0.5248274	0.51562345	0.4816768	0.51379997
0.061787613	0.043758128	0.0130009325	-0.14916827	0.19448198	0.17463438	0.10744223	0.0014644833	-0.29277506	-0.16772664	0.067565896	-0.15644427	0.2851233	-0.2629976	-0.121242896	-0.052486345
0.09988424	-0.180311	-0.41222316	-0.03795675	0.5431442	0.338848	0.4782524	0.23475473	-0.51065993	0.14734411	-0.07119468	0.054543484	0.57891744	-0.19116448	-0.38706338	0.15565975
-0.24529853	-0.3403416	-0.19129916	-0.094470605	0.1654198	-0.14703062	0.081057794	-0.16638747	-0.2816985	0.32299373	0.09908049	0.15219595	0.16871466	-0.094703935	-0.35117674	-0.18161078
0.81363887	0.9754376	-0.2469422	-0.099613376	0.41355774	0.597978	0.43726853	0.64826745	-0.061896257	-0.6019184	-0.5314455	0.019743258	0.2534108	-0.14343876	1.0296937	0.6305769
-0.07636895	0.23188691	0.58416694	-0.5813131	0.07317147	0.363577	-0.25901425	-0.52054524	-0.46692368	-0.7141445	0.68338746	-0.80048877	0.33818787	-0.7613161	-0.30025458	-0.31879497
0.6364685	0.7737074	-0.36943945	0.0418579	0.06629319	0.40692857	0.37714225	0.53700805	0.027769063	-0.18597703	-0.4354599	0.293988	0.079008654	0.005835279	0.63256663	0.46928567
-0.6158288	0.27724656	0.7600637	-0.33827254	-0.40416512	0.31416282	-0.48680305	-0.5855746	-0.4162994	-0.6773851	0.79524684	-0.9470259	0.17677765	-0.5797752	-0.41204563	-0.29298222
-0.6198677	0.3364505	1.0435272	-0.7802184	-0.5048408	0.13095091	-0.91637164	-0.89972323	-0.2661573	-0.9573105	1.1137013	-1.1907152	0.006226781	-0.8864363	-0.36946437	-0.6077409
0.8360104	0.6880555	-0.41325673	0.12485068	0.7863583	0.8892783	0.91349727	0.88853586	-0.60189736	-0.75779665	-0.6605301	-0.26887143	0.70849425	-0.4344505	0.54731447	0.86009526
-0.41009694	-0.11710707	0.5046024	-0.17278187	-0.27008212	-0.048163764	-0.3140875	-0.379938	-0.03451606	-0.38545355	0.4829882	-0.6094788	-0.15451732	-0.30974835	-0.32595885	-0.23825054
-0.3597586	0.15880467	0.3786866	-0.33748522	-0.27234122	-0.2713874	-0.46370402	-0.44479692	0.08548604	-0.13088627	0.2433165	-0.22714856	-0.13420476	-0.12317297	0.0661088	-0.38693768
-0.5637155	0.11651276	0.51098824	0.060007475	-0.3724154	-0.019798446	-0.29235065	-0.24679142	-0.042610098	-0.30929527	0.40128395	-0.5202656	-0.11008211	-0.09889282	-0.2532019	-0.06061383
-0.2412511	-0.004714472	0.5985757	-0.42803955	-0.01740402	0.1981001	-0.33678997	-0.43515292	-0.23176967	-0.45295364	0.5400269	-0.6635097	0.20229845	-0.54896396	-0.3231265	-0.26666424
-0.29624042	-0.16946013	-0.33515504	0.17308582	-0.10113	-0.21818951	0.17997552	0.20741595	0.027061347	0.3605599	-0.18126017	0.41773915	-0.056016564	0.202819	-0.09003472	0.14477198
-0.6408528	-0.7958626	-0.79919344	-0.49889466	0.741751	-0.8788276	-0.24178568	-0.5317665	-0.5744806	1.0297465	0.34230158	0.72493774	0.59857315	-0.36316547	-0.7557357	-0.70640045
-0.1982132	0.26456884	-0.50786537	0.51836646	-0.42019966	-0.16055119	0.38443837	0.6053404	0.48783407	0.582676	-0.6126165	0.6861881	-0.514514	0.53781146	0.49779895	0.59587336
-0.43383607	0.0038781941	-0.53414494	0.396241	-0.2981749	-0.32735345	0.3427495	0.36722967	0.29695657	0.56708676	-0.46651763	0.70123583	-0.32714248	0.42649007	0.078609474	0.3675721
-0.5089248	0.05311458	-0.576216	0.3808762	-0.54183495	-0.8252857	0.08447914	0.33959043	0.54571265	0.73370063	-0.5306206	0.77867603	-0.59864724	0.5839114	0.31849515	0.2681183
-0.3755465	0.003326376	0.44944483	-0.4028991	-0.08572847	-0.28206858	-0.48662654	-0.45905772	-0.0701933	-0.20925558	0.45056573	-0.33577445	0.07401354	-0.35737956	-0.2106708	-0.4493903
-0.242361	-0.1688516	-0.44035107	0.46368667	-0.17534879	-0.15381058	0.40618378	0.40497428	0.16029136	0.48415118	-0.40225706	0.49143872	-0.22499494	0.44589245	0.010550704	0.3631094
-0.3631463	-0.20881651	-0.08782403	0.27487573	-0.11432269	0.00849054	0.21610205	0.13238522	-0.04896734	0.20077303	-0.03307279	0.034727674	-0.004381641	0.22811104	-0.19518302	0.18181664
0.119381376	0.048429348	-0.20424125	0.06494702	0.12429184	0.21199387	0.31215447	0.17631967	-0.090276994	-0.026862286	-0.13494943	0.027098317	0.19113024	0.031500738	0.021058997	0.20545664
0.06973693	-0.07735498	-0.333852	0.18407497	0.22448774	0.16200617	0.38714418	0.25141603	-0.17607497	0.16479692	-0.20408675	0.18034925	0.21263267	0.04630904	-0.099400565	0.22779924
-0.50093883	0.110097475	0.40290126	-0.14551845	-0.3167272	-0.28549427	-0.33634868	-0.31948063	0.07929694	-0.1487186	0.31859618	-0.30515456	-0.17345527	-0.09983474	-0.11588588	-0.24572086
-0.45238587	-0.33338016	-0.671778	0.6172369	-0.09086833	-0.056080855	0.6742268	0.5410287	-0.01797833	0.6634326	-0.45810965	0.5818462	-0.07513277	0.53330046	-0.1989244	0.46030435
0.35866445	0.5740734	0.31524813	-0.18248242	0.2772515	0.63826096	0.3147358	0.21776196	-0.47339022	-0.6570945	0.108966224	-0.5852497	0.46932048	-0.4771722	0.19383556	0.39505374
-0.15297052	-0.08084345	-0.34625128	-0.059870657	0.017316893	-0.41118798	-0.08588881	-0.016032465	0.1813122	0.42667845	-0.22567965	0.5249218	-0.16131054	0.116739124	0.01815138	-0.090204194
-0.86063015	-0.79025555	-0.29927227	-0.91641635	0.6015823	-1.1395913	-0.8973099	-0.9647382	-0.5972151	0.81719595	0.7709411	0.33347306	0.6030665	-0.8172222	-0.7719575	-1.079692
-0.050619505	0.223762	0.4270447	-0.27006614	0.070645764	0.31518015	0.03899745	-0.11769726	-0.31850982	-0.4047987	0.35627338	-0.45467564	0.374535	-0.41453344	-0.22627224	-0.007969247
0.037368562	-0.1986457	0.020236885	-0.035796642	0.36162794	0.31680685	0.32288712	0.079223745	-0.48113987	-0.055220924	0.130802	-0.25799638	0.4304925	-0.2617596	-0.3638591	0.12880051
-0.8676003	-0.89882225	-0.83113027	-0.6518305	0.7712647	-1.3052382	-0.584327	-0.7206162	-0.6801662	1.1562301	0.48529214	0.7613914	0.7012248	-0.4908382	-0.8973996	-0.9824953
-0.041544106	-0.1449885	-0.09584868	0.054443292	0.39763656	0.32569844	0.38181308	0.17542545	-0.6002148	-0.010330017	0.040976834	-0.14635943	0.5813782	-0.22603662	-0.43869665	0.120784074
-0.044198103	0.20095696	-0.5272976	0.41056767	-0.2753681	-0.09781353	0.3528851	0.4558033	0.364257	0.4528665	-0.4954716	0.5028309	-0.39837763	0.42731765	0.34263605	0.4506873
-0.12629522	-0.037847992	-0.1552888	-0.5358546	0.14879218	-0.42189544	-0.411925	-0.30840394	0.018778844	0.3306772	0.057530075	0.431072	0.007604907	-0.27375248	-0.052690998	-0.45189074
0.27541235	0.48215455	0.34989962	-0.2806116	0.021841943	0.44127148	0.010142332	0.024580216	-0.11671111	-0.5256213	0.1910745	-0.40858272	0.19606838	-0.3201702	0.24770644	0.061871495
0.58598447	0.96430403	0.3667036	-0.9564776	-0.52672875	-0.54962075	-0.9077542	-0.61399484	0.71625453	-0.16327958	-0.23792608	0.49144968	-0.5157724	-0.27475214	1.0364587	-0.8478379
-0.39957252	-0.39342362	-0.08779691	-0.24974597	0.2559706	-0.36685744	-0.24006611	-0.40161636	-0.33142862	0.30715948	0.38520443	-0.045990333	0.23566458	-0.31404367	-0.45931458	-0.43068412
0.34486416	0.38381448	-0.0937269	-0.11120866	0.21744686	0.2415973	0.1904379	0.21390733	-0.061480552	-0.15133642	-0.26084796	0.10683318	0.12595443	-0.11639876	0.3042402	0.1822727
0.24937855	0.28255287	0.0872561	-0.21990407	0.17033668	0.23418842	0.099198736	0.11188676	-0.06364208	-0.32572564	-0.08440474	-0.16348957	0.13276707	-0.19469002	0.22235684	0.064844385
-0.29778144	0.2363894	0.24428956	-0.17617771	-0.53178805	-0.6590245	-0.55771375	-0.2731547	0.4539153	0.12565215	0.026455425	0.15010981	-0.5125771	0.12711142	0.2254413	-0.19779432
-0.42342657	-0.73233247	-1.1866506	-0.06267524	0.5576242	-0.58603615	0.2458991	-0.071910076	-0.5003998	1.0038061	-0.14218946	0.94834036	0.53369457	-0.02641266	-0.5996077	-0.3187758
0.18262842	0.27240366	-0.17752008	0.3197102	-0.15412693	0.16844694	0.27536026	0.38953543	0.22894107	-0.007313814	-0.4427283	0.24301718	-0.15105075	0.31073698	0.37637657	0.48702443
0.8354709	0.6932729	-0.62993133	0.103214614	0.91041285	0.97621924	0.9968679	0.93649894	-0.8224089	-0.6397336	-0.6488539	-0.17347121	0.8855655	-0.5023847	0.4269131	0.95538145
-0.35656795	-0.1603825	-0.38253602	0.5838878	-0.3196756	0.30347893	0.78198224	0.55545557	0.15681589	0.30795422	-0.36450002	0.23151043	-0.24862851	0.4560736	-0.107202984	0.74947196
0.08848247	0.27897125	0.22457157	0.15167302	-0.034351237	0.33322647	0.19888549	0.11022908	-0.07054508	-0.3676545	0.0789899	-0.34789225	0.067232154	-0.010049913	0.013992813	0.27177864
-0.0009564751	0.5252957	0.12885232	-0.16161324	-0.49233055	-0.41799045	-0.35297158	-0.059577044	0.6399944	0.1275648	-0.21257088	0.3115204	-0.5867762	0.1182619	0.6373556	-0.16682905
-0.36937267	-0.2639015	-0.20530984	-0.17427438	0.067002304	-0.38701132	-0.16437675	-0.31857422	-0.03654735	0.31486997	0.12946247	0.24211319	0.00050639984	0.00898624	-0.2958421	-0.3027637
-0.37773132	-0.0629641	0.4039902	-0.3489664	-0.06882523	-0.20431328	-0.38466504	-0.4775603	-0.15505497	-0.10935289	0.52042127	-0.31822494	0.119022615	-0.33538473	-0.36075577	-0.45736948
0.65567094	0.97094107	-0.03469335	-0.63096803	0.104347266	0.22829635	-0.18104143	0.1460457	0.25808853	-0.40472195	-0.38598168	0.24311344	-0.038782593	-0.3887706	0.9508041	-0.048429556
-0.23998554	0.08237134	0.2964865	-0.12657653	-0.20380886	-0.1870195	-0.22216974	-0.2267531	0.095569886	-0.08478131	0.191737	-0.1536394	-0.21266097	-0.08701871	-0.04938351	-0.18404916
-0.817012	-0.6009514	-0.57356536	-0.20765263	0.2158978	-1.1788526	-0.41803122	-0.40097925	-0.2233057	0.87730354	0.09064942	0.70703244	0.087266795	-0.052662816	-0.42516997	-0.5697516
0.606735	0.4722641	-0.470732	-0.10658071	0.52193534	0.6159328	0.5662331	0.6170001	-0.3845998	-0.4302303	-0.5800662	0.0805486	0.4220112	-0.30317432	0.462237	0.45168498
0.1912049	0.22777501	-0.11906726	0.25568938	0.14312096	0.4748066	0.51829666	0.41037992	-0.14328657	-0.14684281	-0.19510467	-0.061422296	0.21289808	0.09161087	0.0138952155	0.46388558
-0.14057705	0.95917374	0.90423113	-0.7743207	-0.9298612	-0.280044	-1.0368377	-0.8277367	0.5002238	-0.8750425	0.6707721	-0.72403854	-0.62234217	-0.59390527	0.5008334	-0.54888046
0.6964188	1.050508	0.13287869	-0.552921	0.036154773	-0.047488615	-0.365639	-0.0724945	0.20134842	-0.31625906	-0.060582038	0.06198416	0.00063673593	-0.31593987	0.74988765	-0.2427974
-0.3471292	-0.04599227	0.3810359	-0.4252589	0.18387257	0.13448806	-0.21348566	-0.4225896	-0.39545012	-0.2844499	0.5376212	-0.5558655	0.3459943	-0.5950256	-0.4861656	-0.36366874
-0.21641885	-0.1154753	0.16675115	-0.25104782	0.292207	0.11143322	-0.037625965	-0.21696669	-0.48507994	-0.051493306	0.37259474	-0.32577476	0.43196517	-0.47388792	-0.3476676	-0.2522586
-0.090664625	0.099036776	0.332662	-0.32370722	0.242631	0.21326247	0.003238446	-0.24127217	-0.32097262	-0.3700858	0.36300358	-0.5690306	0.32692516	-0.52731454	-0.2038488	-0.17700143
-0.47355366	-0.45955178	-0.4945538	-0.41043967	0.34099576	-0.7695634	-0.3777529	-0.507185	-0.17075802	0.74941856	0.22010502	0.5936104	0.24706572	-0.2075055	-0.43895474	-0.6595594
-0.49550384	0.24576806	0.61779445	-0.41254506	-0.29181486	0.22855487	-0.5031166	-0.56855327	-0.27458587	-0.57427365	0.70201784	-0.7775997	0.064707525	-0.5971554	-0.21200146	-0.25805303
-0.54452777	-0.16381815	-0.815937	0.64571404	-0.292986	-0.1553426	0.7696483	0.61661136	0.36997283	0.7030463	-0.6104277	0.69727093	-0.35763237	0.5721233	0.0579209	0.62650484
0.1550391	-0.035432976	-0.43936723	-0.37429857	0.34930554	-0.05400932	0.11981718	0.06259408	-0.19191581	0.16307575	-0.26010066	0.3929938	0.21352886	-0.21444553	-0.07500314	-0.21504915
-0.098374605	-0.016789282	0.04669191	-0.37673214	0.10004932	-0.15263371	-0.22381875	-0.29342467	-0.102345824	0.02370905	0.11736682	0.032356814	0.112197146	-0.22255388	-0.16057412	-0.28822145
-0.3258232	0.12312201	0.2356708	0.03812583	-0.43573692	-0.19209678	-0.14199705	-0.092310145	0.18959624	-0.13435178	0.18653469	-0.18628512	-0.27752724	-0.00109993	0.05237219	-0.01717202
-0.7239419	-0.75782955	-0.52844477	-0.36328563	0.65902215	-0.6896379	-0.15597358	-0.459152	-0.66257066	0.80459344	0.4347742	0.3370393	0.6813812	-0.34062204	-0.831923	-0.5761292
-0.047740046	-0.050961085	-0.3819891	0.01746157	-0.062492374	-0.34227246	-0.04350172	0.045010015	0.17448488	0.43171048	-0.26545852	0.48651683	-0.1313784	0.1705606	0.10529023	-0.018158756
0.68466353	1.2969067	0.36761582	-1.0999391	-1.1079926	-1.1395229	-1.3091274	-0.92753214	1.1488153	-0.15280367	-0.112387136	0.58762956	-0.94164866	-0.39887366	1.4025805	-1.0544028
0.9131176	0.7413095	-0.9012586	-0.08093319	1.0705634	1.0110055	1.0598732	1.0569978	-1.0101634	-0.6970744	-0.8172676	-0.15487213	1.078935	-0.7394793	0.35017002	1.0288547
0.047150835	0.33633316	0.05757019	-0.020126013	-0.36967748	-0.31588885	-0.29984313	-0.08347681	0.47308204	0.036582876	-0.15701592	0.20099998	-0.4606723	0.1572397	0.36489058	-0.04747124
-0.21542393	0.005468269	0.53319806	-0.3410917	-0.09275693	0.09343297	-0.33516532	-0.33184773	-0.16794984	-0.36202076	0.40268075	-0.50621665	0.07830507	-0.3326953	-0.15409145	-0.18547012
-0.09148646	-0.21288359	-0.17043088	0.030192774	0.4273254	0.16077213	0.31632164	0.018313924	-0.54904574	0.10400805	-0.037524145	0.053815357	0.5104271	-0.14681503	-0.41113096	0.06959659
-0.46516898	0.08641561	0.29357997	0.32737157	-0.38505208	0.35907933	0.14741486	0.11185034	0.022795275	-0.18215221	0.22692268	-0.38719487	-0.16774358	0.14290114	-0.122902244	0.32251626
0.12994066	0.31028977	-0.05906817	-0.06681858	-0.18044333	-0.2582794	-0.249678	0.022225382	0.27040416	-0.02090769	-0.13664614	0.14785047	-0.3066528	0.029364409	0.3478578	0.022756748
0.14969155	0.6159598	0.59858525	-0.4075865	-0.009369745	0.36727804	-0.13506895	-0.17429267	-0.10440701	-1.0746785	0.43704787	-0.8744489	0.041011654	-0.6821399	0.33514503	-0.047301702
-0.15289508	0.07509302	0.12785026	-0.07953242	-0.17067039	-0.27378815	-0.24384168	-0.09800684	0.112662144	0.09916941	0.03608004	0.010104231	-0.13480812	-0.031423476	0.07030945	-0.1386515
-0.5516664	-0.60669065	-0.24389023	-0.56912833	0.53323585	-0.5562431	-0.28158653	-0.5014488	-0.5503583	0.52026695	0.4286951	0.13669538	0.6088447	-0.4787358	-0.6174507	-0.6287986
-0.4790749	0.08159487	0.15680225	0.044616587	-0.27559936	-0.38592154	-0.18785943	-0.13482642	0.1193	0.062485557	0.16788475	-0.04586258	-0.20729516	0.07639993	-0.01753201	-0.013562223
-0.18522623	-0.54545265	-0.70669115	-0.39325735	0.7803014	-0.14865337	0.2752106	-0.21041158	-0.78283364	0.49260587	0.21011816	0.30958658	0.7808098	-0.5025899	-0.62919676	-0.30814725
-0.075364865	0.09290999	-0.20653443	0.3798702	-0.13842717	0.06553839	0.31905258	0.28611922	0.12629764	0.1432493	-0.33717272	0.233431	-0.22506264	0.32592428	0.069251165	0.29687333
-0.043875057	0.12988326	0.59517276	-0.64399666	0.06196756	0.24486722	-0.29310074	-0.44410768	-0.4290794	-0.6396697	0.6332069	-0.786079	0.29526338	-0.78584564	-0.25143528	-0.3678961
-0.34491134	-0.15995921	0.038456604	-0.4439111	0.16004653	-0.47765893	-0.32727283	-0.42906922	-0.12485018	0.17663135	0.21859966	0.05583157	0.108997524	-0.21012479	-0.2602499	-0.50960475
-0.70521307	-0.37086618	0.047765307	-0.30065033	0.11808098	-0.65000975	-0.2101426	-0.48664707	-0.32565197	0.22337581	0.43231192	-0.07172189	0.24898748	-0.3001204	-0.5616467	-0.4928691
0.032711014	-0.08045484	0.05974105	-0.2766473	0.22876191	0.17149003	-0.013874122	-0.20776394	-0.25261056	-0.18655604	0.18704218	-0.28023207	0.23112847	-0.36031893	-0.146153	-0.17300487
0.4309207	0.6594611	0.17046325	-0.21578078	0.13184895	0.3602103	0.020222036	0.07519579	-0.12608115	-0.5437607	0.039105203	-0.30745018	0.18286252	-0.37278768	0.36964595	0.053473376
0.13880488	0.5931366	0.2987549	-0.6970542	-0.25485596	-0.49261647	-0.6939402	-0.5251572	0.42561007	-0.2222743	0.12133627	0.07112639	-0.27578917	-0.2981599	0.5403355	-0.6745772
0.45397198	0.29004142	-0.23070602	-0.0440688	0.5926462	0.5936372	0.52470005	0.4445099	-0.5858518	-0.38977742	-0.3255687	-0.299816	0.5838144	-0.4966738	0.177754	0.31166673
-0.1001253	-0.005509079	-0.4848101	0.36840183	-0.1298389	-0.018181093	0.3023832	0.35414225	0.14572996	0.46804622	-0.43016225	0.5606774	-0.15403022	0.4294703	0.12008628	0.32448918
-0.106614545	0.43586144	0.52727765	-0.24990651	-0.381067	0.09713396	-0.44841534	-0.37304908	0.18628688	-0.51661927	0.4053533	-0.54526734	-0.22403069	-0.20690963	0.09520913	-0.1352866
0.054279577	0.48965555	0.06050149	0.104203485	-0.3363511	-0.14544141	-0.06991736	0.08968499	0.3979455	-0.005997194	-0.15564817	0.11375902	-0.39647937	0.15600298	0.44593975	0.14904879
-0.20797387	0.12554327	0.24663925	-0.029850006	-0.26069182	0.059781455	-0.05616645	-0.109369434	-0.00067896035	-0.23494358	0.20960692	-0.2527675	-0.07880388	-0.106770866	0.005385741	-0.00971069
0.5503904	0.7940882	-0.25701025	-0.68679947	-0.5525959	-0.65601474	-0.8238053	-0.24599433	0.8813114	0.28105423	-0.58083904	0.90558237	-0.733293	0.16315837	0.99193406	-0.4656388
-0.28501368	0.14993355	0.5076542	-0.37207773	-0.114653565	0.06976427	-0.44088203	-0.38841036	-0.0911699	-0.49577206	0.52988726	-0.52563167	0.034813672	-0.4229382	-0.18327755	-0.25035033
0.90150625	0.72430295	-0.6094501	0.033331044	0.9591455	0.9523202	0.9924119	0.9224862	-0.93445283	-0.77541447	-0.69144577	-0.26680982	0.89322567	-0.5920476	0.69323665	0.8804314
-0.5169532	0.6253358	0.93082887	-0.39370307	-0.58797413	0.6425408	-0.65357244	-0.6408496	-0.18694079	-1.0723352	0.8495596	-1.1333735	-0.10845194	-0.6622747	-0.17419127	-0.1606628
-0.5331324	-0.31819847	-1.0489354	0.8282575	-0.228643	-0.1539596	0.8927889	0.8107401	0.18157533	0.9307025	-0.6861274	0.83711183	-0.32963538	0.8034731	-0.12398999	0.7844507
-0.029279664	-0.031299062	0.036469635	-0.1497355	0.30071864	0.23272687	0.25247806	-0.008984837	-0.58013976	-0.13558467	0.1410488	-0.12402661	0.50899243	-0.33501315	-0.35699978	0.026450833
-0.69156677	-0.5855691	-0.052090704	-0.62202686	0.506035	-0.62735146	-0.46223217	-0.71028566	-0.59764576	0.40497956	0.7135727	-0.12625961	0.5525276	-0.61175925	-0.71474576	-0.668303
0.46981034	0.6990979	0.03118383	0.13984226	0.37142956	0.6476646	0.45504692	0.39002487	-0.3865325	-0.5477984	-0.1386396	-0.3425329	0.42777342	-0.29630533	0.54472	0.5688959
0.17283665	0.46678072	0.17983902	0.08392689	-0.055942155	0.34764627	0.19901729	0.17115897	0.025573961	-0.3563817	0.004261495	-0.2763611	0.05181273	0.013168958	0.15552811	0.37344527
-0.4895011	-0.097438276	0.38405874	-0.20716323	-0.29627514	-0.19416694	-0.36578378	-0.38091102	0.02385428	-0.21332237	0.45794955	-0.3857743	-0.101091936	-0.23790494	-0.19982971	-0.23904972
-0.1760744	0.18369688	0.3111448	0.1558314	-0.22678089	0.2441793	0.08247751	-0.040358096	-0.027631387	-0.30258974	0.18964085	-0.39405698	-0.05367891	-0.012373292	-0.1068797	0.1636882
0.5962149	0.77860856	-0.081761524	-0.4258019	-0.28397134	-0.21905024	-0.40911475	0.11259787	0.5509261	-0.0082101775	-0.46706903	0.517109	-0.44459486	0.057281327	0.9113858	-0.14679699
-0.5873641	-0.59919643	-0.6802883	-0.85945517	0.5041093	-1.1047288	-0.6056008	-0.7633072	-0.3605111	0.9249997	0.36507794	0.7441127	0.35545674	-0.5548323	-0.5132549	-0.9259664
-0.25765803	-0.036183108	0.2412356	-0.11784119	-0.20008473	-0.14796248	-0.20197064	-0.21492729	0.073270224	-0.143335	0.23735574	-0.19884714	-0.17550866	-0.09421269	-0.015435704	-0.20573683
-0.6719799	0.68458337	0.86705667	-0.52495325	-0.6645222	0.82819706	-0.8420458	-0.8234967	0.08081142	-0.86615413	0.93898654	-1.0353286	-0.38985318	-0.76548696	0.21511807	-0.13490982
0.6975334	0.80421215	-0.06879708	-0.5907267	0.6030477	0.61374086	0.3327833	0.44663274	-0.33526492	-0.71161395	-0.22469892	-0.2682219	0.5079699	-0.6416957	0.50832504	0.30959868
0.32483315	0.2647872	-0.39472836	0.157869	0.22068007	0.40284392	0.39359856	0.401359	-0.05465925	-0.022810474	-0.45082617	0.22848493	0.12392514	0.05401032	0.34943843	0.3626312
-0.5147686	-0.27448028	-0.0985839	0.1769616	-0.21548495	-0.4275159	-0.06681378	-0.055741575	0.07446986	0.31846416	-0.026730167	0.12709843	-0.17533743	0.23331515	-0.20667921	-0.026499886
-0.39023805	-0.35174832	-0.32967085	0.111344665	0.32295826	-0.16733609	0.29779705	0.061330255	-0.37778234	0.4907619	-0.0695394	0.4060982	0.3082909	0.11797394	-0.49541107	-0.05742913
-0.5353484	-0.34313023	-0.47580886	0.24175099	-0.066945374	-0.5918238	0.13800618	0.033583663	0.014430641	0.6568305	-0.23713724	0.61115754	-0.16403878	0.31708986	-0.24117628	-0.025631579
-0.3781019	-0.39990556	-0.038212854	0.05024406	0.0654039	-0.19907738	0.0057618017	-0.105023906	-0.21144323	0.25812137	0.15679298	0.005782048	0.1192211	-0.03412966	-0.4508639	-0.17495699
0.033358242	0.10687643	-0.73314923	0.44632518	-0.28107062	-0.27207196	0.27354375	0.48776633	0.39317858	0.57551444	-0.7101306	0.78067964	-0.4249682	0.54900116	0.37713826	0.4647245
0.8682445	0.6613053	-0.7808516	0.14342593	0.95776474	0.9933512	1.0363593	1.0231497	-0.90024954	-0.74864733	-0.8029602	-0.2138532	0.9135961	-0.5569655	0.40024272	0.94401944
-0.22035792	-0.21816038	0.23299539	-0.19506113	0.26371753	0.07606171	-0.09684076	-0.2768134	-0.5087855	-0.085711725	0.43243554	-0.35648647	0.46005654	-0.41053194	-0.51876503	-0.23614757
0.7472656	1.205867	0.36623374	-0.88399553	-1.1224185	-1.1081901	-1.2397635	-0.69330484	1.0317475	0.014858171	-0.36236095	0.7192553	-1.0231987	0.0147973895	1.198669	-0.78927153
-0.25135636	-0.029294217	0.29225254	-0.115854636	-0.03083684	0.06352509	-0.17409995	-0.24620558	-0.16690697	-0.122561365	0.31016988	-0.37582096	0.07900149	-0.278892	-0.2793796	-0.12786728
-0.42765078	0.17572862	-0.059018847	0.4232398	-0.49152705	-0.015129771	0.24005885	0.32897294	0.4100671	0.19039717	-0.26779795	0.17959766	-0.5464775	0.4703045	0.2674983	0.46087536
-0.12689058	0.17241108	0.31594747	-0.20941503	-0.3202023	-0.20650499	-0.57270813	-0.3697084	0.17257592	-0.16548114	0.22447427	-0.20292921	-0.22976059	-0.088047676	0.08933758	-0.21551299
-0.821718	-0.8724971	-1.0444618	-0.54346526	0.90779525	-0.9547489	0.04305568	-0.5450545	-0.84749585	1.1219012	0.34165436	0.77292746	0.860176	-0.46069062	-0.9739435	-0.79736227
-0.800564	-0.118779674	0.66586787	-0.6076892	-0.1207542	-0.081468426	-0.7527384	-0.8870867	-0.47440854	-0.5667444	0.9697686	-0.89219266	0.36225507	-0.7879523	-0.5625404	-0.6366003
-0.3331011	0.41170377	0.64336056	0.1755138	-0.60751843	0.5060168	0.0058872327	-0.0989642	0.031553052	-0.5186261	0.36935747	-0.6067259	-0.22153756	-0.00791976	-0.07540263	0.23230545
-0.04433466	0.18482696	0.32911122	-0.46413434	0.07051425	-0.011624869	-0.33710465	-0.38681197	-0.1790974	-0.23618491	0.37011722	-0.25454015	0.13246627	-0.42492118	-0.02258221	-0.39245257
-0.20480238	0.03574538	0.42933163	-0.4083721	0.040563066	0.1749814	-0.18567282	-0.36421505	-0.3653125	-0.392488	0.49592233	-0.5514578	0.3410115	-0.5729303	-0.34521112	-0.3030219
-0.29767644	-0.0083806515	-0.17721069	0.2966489	-0.4758498	-0.47326577	0.0040398333	0.102435045	0.4450036	0.36197218	-0.2508412	0.30457318	-0.525538	0.38974193	0.16917695	0.1559357
-0.11107442	0.11103408	0.1625826	-0.19063915	-0.015858645	0.021395134	-0.14546159	-0.17672864	-0.058127403	-0.07720574	0.18241253	-0.11935188	0.13917421	-0.17362492	-0.09253711	-0.17787902
0.007828132	0.2596639	-0.013725189	0.08057668	-0.20078288	-0.10157622	-0.031178605	0.15390596	0.20553571	0.086382896	-0.23873514	0.24475206	-0.16497478	0.10799097	0.34144354	0.07720416
0.43355584	0.49038485	0.4014947	-0.40956867	0.21193185	0.588596	0.120655045	0.05064714	-0.35716552	-0.70012033	0.34167954	-0.6465803	0.38624373	-0.49085462	0.14274924	0.17389168
0.32107356	0.020789444	-0.5828747	-0.21686096	0.7605481	0.44830573	0.54025286	0.31065425	-0.6938766	-0.1953004	-0.15940763	-0.0927203	0.7561501	-0.5893342	-0.115686394	0.19626437
-0.1544043	-0.49276635	-0.5703065	-0.13852401	0.4938274	-0.006829615	0.25799206	0.00035614482	-0.43226504	0.37684128	0.0050628884	0.3381459	0.49875128	-0.190095	-0.39932516	-0.112795234
0.05489919	0.55746055	0.3399028	0.055188276	-0.68476045	-0.010837565	-0.27472132	-0.031593744	0.53902674	-0.22880268	0.023449354	-0.13707007	-0.639327	0.21101712	0.53171575	0.2876754
0.20202932	0.42503422	0.28753284	-0.074199304	-0.08188384	0.22409755	-0.057125304	0.0342492	0.11632958	-0.45592764	0.021806154	-0.24634887	-0.07033738	-0.12907301	0.36902642	0.116586104
-0.18106051	0.042341728	0.06712242	0.05940256	0.046272114	-0.011187753	0.09962743	0.05422795	-0.17412047	0.04251704	0.020177681	0.0031477	0.17276117	0.014869924	-0.20276831	0.11390606
-0.67672855	0.123062514	0.95038986	-0.7457336	-0.4580314	-0.03241647	-0.9417825	-0.9698737	-0.137398	-0.8572841	1.0116253	-1.0410007	-0.04033351	-0.90863305	-0.40544194	-0.63101393
-0.22369555	0.20479777	-0.31726202	0.5493357	-0.59433186	-0.18229893	0.34119844	0.45520633	0.56108147	0.38335216	-0.53154737	0.5131683	-0.6373349	0.5776735	0.45449787	0.5063696
-0.32314256	-0.28691858	-0.43817776	0.21112995	0.011767556	-0.28117394	0.21459834	0.12245839	-0.10015495	0.47013384	-0.14624718	0.47634092	-0.008784784	0.23253599	-0.25882626	0.009439442
0.01397612	0.22979812	0.1646405	0.2352576	-0.19666994	0.34019604	0.22354916	0.22559623	0.0027638508	-0.23270969	-0.08689202	-0.21073303	-0.012737258	0.12681483	0.072486326	0.42689145
0.43266234	0.2572433	0.18458599	-0.713273	0.50282264	0.5102791	0.08752541	-0.12125121	-0.46921685	-0.57742953	0.28679115	-0.46907914	0.5331037	-0.7467616	-0.03141045	-0.056446213
-0.49419424	-0.045995727	0.0109850755	0.45922908	-0.2966105	0.010945405	0.3831188	0.29393497	0.10672058	0.25244027	-0.15258288	0.09463347	-0.28801143	0.3713955	-0.2041882	0.42866144
